{"learner":{"attributes":{"best_iteration":"111","best_ntree_limit":"112","scikit_learn":"{\"use_label_encoder\": false, \"n_estimators\": 112, \"objective\": \"binary:logistic\", \"max_depth\": 8, \"max_leaves\": null, \"max_bin\": null, \"grow_policy\": null, \"learning_rate\": 0.017508231609795998, \"verbosity\": null, \"booster\": null, \"tree_method\": \"hist\", \"gamma\": 4.359548155062798, \"min_child_weight\": 3, \"max_delta_step\": null, \"subsample\": 0.8, \"sampling_method\": null, \"colsample_bytree\": null, \"colsample_bylevel\": null, \"colsample_bynode\": null, \"reg_alpha\": null, \"reg_lambda\": null, \"scale_pos_weight\": 1.0114876507754165, \"base_score\": null, \"missing\": NaN, \"num_parallel_tree\": null, \"random_state\": null, \"n_jobs\": -1, \"monotone_constraints\": null, \"interaction_constraints\": null, \"importance_type\": null, \"gpu_id\": null, \"validate_parameters\": null, \"predictor\": null, \"enable_categorical\": false, \"max_cat_to_onehot\": null, \"eval_metric\": \"logloss\", \"early_stopping_rounds\": null, \"callbacks\": null, \"classes_\": [0, 1], \"n_classes_\": 2, \"_estimator_type\": \"classifier\"}"},"feature_names":["HR","O2Sat","Temp","SBP","MAP","DBP","Resp","EtCO2","BaseExcess","HCO3","FiO2","pH","PaCO2","SaO2","AST","BUN","Alkalinephos","Calcium","Chloride","Creatinine","Bilirubin_direct","Glucose","Lactate","Magnesium","Phosphate","Potassium","TroponinI","Hct","PTT","WBC","Fibrinogen","Platelets","Age","Gender","HospAdmTime"],"feature_types":["float","float","float","float","float","float","float","float","float","float","float","float","float","float","float","float","float","float","float","float","float","float","float","float","float","float","float","float","float","float","float","float","float","int","float"],"gradient_booster":{"model":{"gbtree_model_param":{"num_parallel_tree":"1","num_trees":"112","size_leaf_vector":"0"},"tree_info":[0,0,0,0,0,0,0,0,0,0,0,0,0,0,0,0,0,0,0,0,0,0,0,0,0,0,0,0,0,0,0,0,0,0,0,0,0,0,0,0,0,0,0,0,0,0,0,0,0,0,0,0,0,0,0,0,0,0,0,0,0,0,0,0,0,0,0,0,0,0,0,0,0,0,0,0,0,0,0,0,0,0,0,0,0,0,0,0,0,0,0,0,0,0,0,0,0,0,0,0,0,0,0,0,0,0,0,0,0,0,0,0],"trees":[{"base_weights":[2.2241006E-2,-3.5963047E-1,8.4066343E-1,-8.20333E-1,3.9135098E-1,9.80508E-1,-1.8205967E0,-2.7393324E-3,-1.0760376E0,1.0757333E0,5.9648804E-2,1.2070745E0,2.575136E-1,1.5019868E-4,-3.337561E-2,-7.089679E-1,6.875888E-1,-6.2825316E-1,-1.4460262E0,7.3961474E-2,1.3982079E0,6.271446E-1,-3.6437058E-1,9.299462E-1,1.5709152E0,6.395033E-1,-5.2684337E-1,3.2935074E-1,-9.4195724E-1,8.7865424E-1,-5.231885E-1,-7.7112305E-1,5.994368E-1,-1.5066968E0,6.009539E-1,6.555538E-1,-5.9236336E-1,3.0976806E-2,9.7541547E-1,-3.0907142E-1,8.5518044E-1,-8.189642E-1,1.2122166E-1,3.3803013E-1,1.2218459E0,1.7757049E-1,1.6518264E0,-3.450855E-1,8.7758833E-1,-3.9628644E-2,-1.1930953E0,1.3393764E0,-1.947684E-1,-1.1445632E0,7.4631697E-1,-7.850177E-1,1.0259523E0,-1.1213096E0,5.316399E-1,-1.0598708E0,-1.7856443E-1,-2.4477353E-2,7.535056E-1,-5.9922767E-1,-1.5926883E0,-4.667448E-1,2.5303347E-2,1.035264E0,-6.578462E-1,-8.144429E-1,2.6849043E-2,-7.233139E-1,1.1133499E0,2.8709115E-2,-4.8952204E-1,1.2058314E0,4.1785946E-1,1.0081387E0,-9.401122E-1,-1.4602566E-1,9.487553E-1,-4.904281E-2,1.1280625E0,1.5469757E-1,1.3934199E0,-2.0504126E-2,8.57434E-1,9.179571E-1,1.7204624E0,2.166071E-2,-6.284472E-1,1.4498476E0,3.2187432E-1,-8.261259E-1,5.504772E-1,-1.4675196E0,2.7656573E-1,1.5019868E-4,3.0064227E-2,-7.9129654E-1,8.380584E-1,1.957839E-2,-1.2401775E0,-2.2223428E-2,1.4534717E0,-2.7195323E-2,2.0353408E-1,1.1035379E0,-1.5576787E-2,5.688503E-3,-2.6056575E-2,2.6062904E-2,-2.0205913E-2,-3.0368038E-2,-8.9427316E-1,-6.64667E-1,2.333942E-1,9.800211E-1,-6.581844E-1,-1.2016723E0,9.673542E-1,-1.6550287E0,-9.7975385E-1,-2.0924194E-2,1.763304E-2,1.3564929E0,-1.614964E-1,8.496829E-3,-2.4962543E-2,-1.1071471E0,1.3619134E-2,-2.7746815E-2,1.763304E-2,-1.105589E-1,1.2978598E0,-8.387872E-1,7.784063E-1,1.4952272E0,4.1071865E-1,-9.92311E-1,6.9052196E-1,2.533495E-2,-6.040656E-3,2.0698297E-1,-1.0971098E0,8.94418E-2,-1.1933013E0,-9.660903E-3,1.1361423E0,4.9948663E-1,-6.915277E-1,4.5258382E-1,1.5247318E0,-2.6628628E-2,5.600581E-1,3.8666967E-1,1.5058372E0,2.8565537E-2,-8.928765E-3,1.327027E0,-2.3388799E-1,1.7450409E0,6.04129E-1,-1.0381868E0,6.759617E-1,-7.645302E-3,1.5401192E0,1.0653942E0,-3.0828837E-1,-1.2473646E0,2.5999424E-1,-6.583381E-1,8.9779896E-1,-2.9928718E-2,-5.8576363E-1,1.763304E-2,-7.645302E-3,-2.7406573E-2,1.1252715E-3,-1.0176804E-2,2.758308E-2,-2.424916E-2,-8.225123E-3,3.049539E-2,4.530276E-3,-1.7432917E-2,2.038767E-2,-1.9015249E-2,2.0507505E-2,-1.7632801E-2,4.2918124E-3,-5.4667853E-3,-2.4100585E-2,2.5870256E-2,-2.410216E-3,1.986439E-2,-1.8465847E-2,7.163276E-3,-2.801317E-2,-2.7110739E-2,-1.2766165E-3,2.5447717E-2,-1.2785196E-2,-2.950737E-2,-9.471859E-3,-2.3924507E-2,-2.6951325E-3,1.1837831E-2,2.9543798E-2,-1.9709913E-2,2.1988183E-2,-4.8248833E-3,-2.6807033E-2,-2.4343422E-2,1.8117838E-2,9.728935E-3,2.6485747E-2,1.1836023E-2,-2.1268727E-2,3.0062886E-2,-4.838837E-3,4.0619294E-3,2.7453458E-2,-1.6936878E-2,1.4751213E-2,-2.443185E-2,7.163276E-3,5.028057E-3,2.298979E-2,-2.1974659E-2,1.2137325E-2,-2.1071678E-2,5.3705177E-3,6.835071E-3,-1.485247E-2,-7.123648E-3,-2.9056719E-2,-8.195424E-3,2.3024255E-2,2.854547E-2,1.075739E-3,-1.531641E-2,2.4601258E-2,-8.027013E-3,2.166656E-2,2.8944813E-2,2.2149493E-3,2.6098575E-2,-1.4758123E-3,1.926131E-4,3.0233966E-2,3.0992016E-2,2.0310277E-2,2.8854238E-2,-6.858978E-3,-2.6262347E-2,8.6195525E-3,1.2464127E-2,3.0952835E-2,2.8709115E-2,-1.2785196E-2,-2.1637455E-2,4.0488266E-3,-6.040656E-3,2.2939367E-2,-1.6876298E-3,2.8437164E-2,1.7657067E-4,2.2996759E-2,1.5559236E-2,-1.2657091E-2,-1.1519415E-2,-3.1230899E-2,-1.7432917E-2,2.1121612E-2,-2.497894E-2,8.904099E-3,1.9104345E-2,-8.628771E-3,-2.497894E-2,7.163276E-3],"categories":[],"categories_nodes":[],"categories_segments":[],"categories_sizes":[],"default_left":[0,0,0,0,0,0,0,0,0,0,0,0,0,0,0,0,0,0,0,0,0,0,0,0,0,0,0,0,0,0,0,0,0,0,0,0,0,0,0,0,0,0,0,0,0,0,0,0,0,0,0,0,0,0,0,0,0,0,0,0,0,0,0,0,0,0,0,0,0,0,0,0,0,0,0,0,0,0,0,0,0,0,0,0,0,0,0,0,0,0,0,0,0,0,0,0,0,0,0,0,0,0,0,0,0,0,0,0,0,0,0,0,0,0,0,0,0,0,0,0,0,0,0,0,0,0,0,0,0,0,0,0,0,0,0,0,0,0,0,0,0,0,0,0,0,0,0,0,0,0,0,0,0,0,0,0,0,0,0,0,0,0,0,0,0,0,0,0,0,0,0,0,0,0,0,0,0,0,0,0,0,0,0,0,0,0,0,0,0,0,0,0,0,0,0,0,0,0,0,0,0,0,0,0,0,0,0,0,0,0,0,0,0,0,0,0,0,0,0,0,0,0,0,0,0,0,0,0,0,0,0,0,0,0,0,0,0,0,0,0,0,0,0,0,0,0,0,0,0,0,0,0,0,0,0,0,0,0,0,0,0,0,0,0,0,0,0,0,0,0,0,0,0,0,0,0,0,0,0,0,0],"id":0,"left_children":[1,3,5,7,9,11,13,15,17,19,21,23,25,-1,-1,27,29,31,33,35,37,39,41,43,45,47,49,51,53,55,57,59,61,63,65,67,69,-1,71,73,75,77,79,81,83,85,87,89,91,93,95,97,99,101,103,105,107,109,111,113,115,-1,117,119,121,123,-1,125,127,129,-1,131,133,-1,135,137,139,141,143,145,147,149,151,153,155,-1,157,159,161,-1,163,165,167,169,171,173,175,-1,-1,177,179,-1,181,-1,183,-1,185,187,-1,-1,-1,-1,-1,-1,189,191,193,195,197,199,201,203,205,-1,-1,207,209,-1,-1,211,-1,-1,-1,213,215,217,219,221,223,225,227,-1,-1,229,231,233,235,-1,237,239,241,243,245,-1,247,249,251,-1,-1,253,255,257,259,261,263,-1,265,267,269,271,273,275,277,-1,279,-1,-1,-1,-1,-1,-1,-1,-1,-1,-1,-1,-1,-1,-1,-1,-1,-1,-1,-1,-1,-1,-1,-1,-1,-1,-1,-1,-1,-1,-1,-1,-1,-1,-1,-1,-1,-1,-1,-1,-1,-1,-1,-1,-1,-1,-1,-1,-1,-1,-1,-1,-1,-1,-1,-1,-1,-1,-1,-1,-1,-1,-1,-1,-1,-1,-1,-1,-1,-1,-1,-1,-1,-1,-1,-1,-1,-1,-1,-1,-1,-1,-1,-1,-1,-1,-1,-1,-1,-1,-1,-1,-1,-1,-1,-1,-1,-1,-1,-1,-1,-1,-1,-1,-1,-1,-1],"loss_changes":[1.3218519E3,9.9809906E2,5.025664E2,3.7374475E2,2.4901105E2,2.0920874E2,1.0600235E1,2.0862126E2,2.247107E2,1.15586395E2,1.783115E2,9.670874E1,9.2156906E1,0E0,0E0,5.1480476E1,5.052015E1,1.0884204E2,9.3417725E1,3.459325E1,4.076709E1,6.791055E1,9.374338E1,9.549936E1,4.699951E1,4.8719612E1,3.2710976E1,2.1174097E1,6.0034424E1,4.669818E1,1.959969E1,9.458768E1,2.1049149E1,5.5523804E1,2.0648354E1,2.442133E1,2.0917568E1,0E0,3.0992523E1,2.2885845E1,3.8609146E1,4.9474167E1,4.5693375E1,5.65429E1,6.778436E1,2.314192E1,1.838501E1,1.9131514E1,5.2515976E1,2.7988264E1,1.7583633E1,6.8343143E0,1.7225494E1,3.4893997E1,2.913147E1,1.2314955E1,2.661621E1,1.0854469E1,2.0394655E1,4.003421E1,3.6739384E1,0E0,2.0141708E1,6.180009E1,2.3616821E1,1.2518667E1,0E0,1.4564571E1,1.0600426E1,1.8746212E1,0E0,1.6923153E1,2.71409E1,0E0,2.6445925E1,3.1836731E1,4.4915863E1,8.881936E0,3.734651E1,3.8716415E1,1.4803158E1,4.4375725E1,1.5596542E1,3.6556118E1,3.561438E1,0E0,1.8434628E1,1.7293264E1,8.859375E0,0E0,1.961238E1,1.4602219E1,4.0533745E1,1.2142132E1,1.5073333E1,6.6874313E0,4.3701997E0,0E0,0E0,1.1726262E1,1.17242365E1,0E0,1.5982361E1,0E0,4.5911922E0,0E0,1.0140009E1,2.5935349E1,0E0,0E0,0E0,0E0,0E0,0E0,3.8939316E1,2.0659817E1,4.6197987E1,1.7845486E1,9.7304735E0,1.8226044E1,1.6245068E1,1.928601E1,2.0045975E1,0E0,0E0,5.5068817E0,1.3427459E1,0E0,0E0,1.1151566E1,0E0,0E0,0E0,2.5748238E1,1.574173E1,2.7104671E1,1.3442356E1,9.110489E0,2.402963E1,1.133309E1,2.3976292E1,0E0,0E0,1.9109398E1,2.7478867E1,3.666899E1,9.889851E0,0E0,1.3573219E1,3.357495E1,2.3502155E1,1.7666183E1,6.5945587E0,0E0,2.5943878E1,1.6832405E1,2.420929E1,0E0,0E0,1.5403263E1,1.0205118E1,7.0787354E0,1.4067287E1,7.1405144E0,6.3209023E0,0E0,1.093013E1,1.0351521E1,2.4078493E1,4.7655907E0,1.0762773E1,8.145706E0,7.856777E0,0E0,8.349116E0,0E0,0E0,0E0,0E0,0E0,0E0,0E0,0E0,0E0,0E0,0E0,0E0,0E0,0E0,0E0,0E0,0E0,0E0,0E0,0E0,0E0,0E0,0E0,0E0,0E0,0E0,0E0,0E0,0E0,0E0,0E0,0E0,0E0,0E0,0E0,0E0,0E0,0E0,0E0,0E0,0E0,0E0,0E0,0E0,0E0,0E0,0E0,0E0,0E0,0E0,0E0,0E0,0E0,0E0,0E0,0E0,0E0,0E0,0E0,0E0,0E0,0E0,0E0,0E0,0E0,0E0,0E0,0E0,0E0,0E0,0E0,0E0,0E0,0E0,0E0,0E0,0E0,0E0,0E0,0E0,0E0,0E0,0E0,0E0,0E0,0E0,0E0,0E0,0E0,0E0,0E0,0E0,0E0,0E0,0E0,0E0,0E0,0E0,0E0,0E0,0E0,0E0,0E0,0E0,0E0,0E0],"parents":[2147483647,0,0,1,1,2,2,3,3,4,4,5,5,6,6,7,7,8,8,9,9,10,10,11,11,12,12,15,15,16,16,17,17,18,18,19,19,20,20,21,21,22,22,23,23,24,24,25,25,26,26,27,27,28,28,29,29,30,30,31,31,32,32,33,33,34,34,35,35,36,36,38,38,39,39,40,40,41,41,42,42,43,43,44,44,45,45,46,46,47,47,48,48,49,49,50,50,51,51,52,52,53,53,54,54,55,55,56,56,57,57,58,58,59,59,60,60,62,62,63,63,64,64,65,65,67,67,68,68,69,69,71,71,72,72,74,74,75,75,76,76,77,77,78,78,79,79,80,80,81,81,82,82,83,83,84,84,86,86,87,87,88,88,90,90,91,91,92,92,93,93,94,94,95,95,96,96,99,99,100,100,102,102,104,104,106,106,107,107,114,114,115,115,116,116,117,117,118,118,119,119,120,120,121,121,122,122,125,125,126,126,129,129,133,133,134,134,135,135,136,136,137,137,138,138,139,139,140,140,143,143,144,144,145,145,146,146,148,148,149,149,150,150,151,151,152,152,154,154,155,155,156,156,159,159,160,160,161,161,162,162,163,163,164,164,166,166,167,167,168,168,169,169,170,170,171,171,172,172,174,174],"right_children":[2,4,6,8,10,12,14,16,18,20,22,24,26,-1,-1,28,30,32,34,36,38,40,42,44,46,48,50,52,54,56,58,60,62,64,66,68,70,-1,72,74,76,78,80,82,84,86,88,90,92,94,96,98,100,102,104,106,108,110,112,114,116,-1,118,120,122,124,-1,126,128,130,-1,132,134,-1,136,138,140,142,144,146,148,150,152,154,156,-1,158,160,162,-1,164,166,168,170,172,174,176,-1,-1,178,180,-1,182,-1,184,-1,186,188,-1,-1,-1,-1,-1,-1,190,192,194,196,198,200,202,204,206,-1,-1,208,210,-1,-1,212,-1,-1,-1,214,216,218,220,222,224,226,228,-1,-1,230,232,234,236,-1,238,240,242,244,246,-1,248,250,252,-1,-1,254,256,258,260,262,264,-1,266,268,270,272,274,276,278,-1,280,-1,-1,-1,-1,-1,-1,-1,-1,-1,-1,-1,-1,-1,-1,-1,-1,-1,-1,-1,-1,-1,-1,-1,-1,-1,-1,-1,-1,-1,-1,-1,-1,-1,-1,-1,-1,-1,-1,-1,-1,-1,-1,-1,-1,-1,-1,-1,-1,-1,-1,-1,-1,-1,-1,-1,-1,-1,-1,-1,-1,-1,-1,-1,-1,-1,-1,-1,-1,-1,-1,-1,-1,-1,-1,-1,-1,-1,-1,-1,-1,-1,-1,-1,-1,-1,-1,-1,-1,-1,-1,-1,-1,-1,-1,-1,-1,-1,-1,-1,-1,-1,-1,-1,-1,-1,-1],"split_conditions":[-1.19E0,2.26E1,4.4E-1,7.268E0,7.2E0,1.104E2,-5.36E0,3.914E0,1.085E2,3.158E0,1.069E2,1.252E2,9.93E1,1.5019868E-4,-3.337561E-2,9.56E1,4.54E0,2.7E1,1E2,9.72E1,9.71E1,1.48E1,1.82E1,1.74E1,3.61E1,2.7E1,1.125E2,1E0,-7.49E0,1.88E0,2.324E2,1.22E2,7.292E0,-1.4424E2,1.95E1,9.5E1,-7.49E0,3.0976806E-2,1.04E2,-6.277E2,3.96E0,4.865E1,8.35E1,2.06E1,7.322E0,4.96E0,1.26E1,5.796E0,3.28E1,7.55E1,1.46E0,1.775E1,9.717E1,-2.8423E2,2.088E0,2.255E1,4.34E0,7.332E0,-2.8E0,2.39E1,1.666E2,-2.4477353E-2,2.37E0,2.3E1,2.208E2,3.696E1,2.5303347E-2,1.43E1,1.44E0,1.1E2,2.6849043E-2,-2.703E1,1.22E0,2.8709115E-2,-9.42E0,4.44E0,2.067E1,9.744E1,3.188E1,2.44E0,2.6E0,3.46E0,3.711E1,-1.066E1,2.57E1,-2.0504126E-2,7.388E0,9.99E1,5.2E0,2.166071E-2,1.378E0,1.75E0,6.082E1,1.024E0,2.67E1,9.5E1,4.82E-1,1.5019868E-4,3.0064227E-2,1.78E1,2.088E0,1.957839E-2,1.005E2,-2.2223428E-2,3.12E1,-2.7195323E-2,3.7014E1,7.52E1,-1.5576787E-2,5.688503E-3,-2.6056575E-2,2.6062904E-2,-2.0205913E-2,-3.0368038E-2,1.08E2,3.2E1,-1.5801E2,-2.92E0,-3.376E1,2.852E2,4.52E0,8.644E1,7.384E0,-2.0924194E-2,1.763304E-2,5.94E1,4.6E0,8.496829E-3,-2.4962543E-2,2.09E0,1.3619134E-2,-2.7746815E-2,1.763304E-2,5.931E1,2.024E2,3.948E0,2.954E1,9.2E1,2.52E1,1.358E2,2.16E1,2.533495E-2,-6.040656E-3,2.72E1,1.477E2,4.44E0,-7.881E1,-9.660903E-3,5.01E1,3.49E0,7.28E0,1.622E2,6.24E0,-2.6628628E-2,1.216E1,3.94E1,1.075E2,2.8565537E-2,-8.928765E-3,3.5E1,2.992E1,1.71E0,9.8E1,1.554E1,3.6824E1,-7.645302E-3,7.6E0,1.38E1,4.46E-1,1.316E2,1.988E2,3.754E1,1.546E2,-2.9928718E-2,2.54E0,1.763304E-2,-7.645302E-3,-2.7406573E-2,1.1252715E-3,-1.0176804E-2,2.758308E-2,-2.424916E-2,-8.225123E-3,3.049539E-2,4.530276E-3,-1.7432917E-2,2.038767E-2,-1.9015249E-2,2.0507505E-2,-1.7632801E-2,4.2918124E-3,-5.4667853E-3,-2.4100585E-2,2.5870256E-2,-2.410216E-3,1.986439E-2,-1.8465847E-2,7.163276E-3,-2.801317E-2,-2.7110739E-2,-1.2766165E-3,2.5447717E-2,-1.2785196E-2,-2.950737E-2,-9.471859E-3,-2.3924507E-2,-2.6951325E-3,1.1837831E-2,2.9543798E-2,-1.9709913E-2,2.1988183E-2,-4.8248833E-3,-2.6807033E-2,-2.4343422E-2,1.8117838E-2,9.728935E-3,2.6485747E-2,1.1836023E-2,-2.1268727E-2,3.0062886E-2,-4.838837E-3,4.0619294E-3,2.7453458E-2,-1.6936878E-2,1.4751213E-2,-2.443185E-2,7.163276E-3,5.028057E-3,2.298979E-2,-2.1974659E-2,1.2137325E-2,-2.1071678E-2,5.3705177E-3,6.835071E-3,-1.485247E-2,-7.123648E-3,-2.9056719E-2,-8.195424E-3,2.3024255E-2,2.854547E-2,1.075739E-3,-1.531641E-2,2.4601258E-2,-8.027013E-3,2.166656E-2,2.8944813E-2,2.2149493E-3,2.6098575E-2,-1.4758123E-3,1.926131E-4,3.0233966E-2,3.0992016E-2,2.0310277E-2,2.8854238E-2,-6.858978E-3,-2.6262347E-2,8.6195525E-3,1.2464127E-2,3.0952835E-2,2.8709115E-2,-1.2785196E-2,-2.1637455E-2,4.0488266E-3,-6.040656E-3,2.2939367E-2,-1.6876298E-3,2.8437164E-2,1.7657067E-4,2.2996759E-2,1.5559236E-2,-1.2657091E-2,-1.1519415E-2,-3.1230899E-2,-1.7432917E-2,2.1121612E-2,-2.497894E-2,8.904099E-3,1.9104345E-2,-8.628771E-3,-2.497894E-2,7.163276E-3],"split_indices":[34,15,34,17,17,18,8,17,18,17,18,3,1,0,0,1,25,6,4,13,1,6,6,15,2,7,18,33,34,23,30,3,11,34,6,4,34,0,31,34,24,32,4,6,11,26,15,17,7,4,19,6,13,34,17,9,20,11,8,7,31,0,23,6,31,28,0,29,19,0,0,34,19,0,34,25,9,13,28,23,26,20,2,8,7,0,11,1,25,0,19,23,32,19,7,16,10,0,0,15,17,0,0,0,27,0,2,31,0,0,0,0,0,0,0,7,34,34,34,30,25,32,11,0,0,16,25,0,0,23,0,0,0,32,30,26,27,21,15,16,6,0,0,7,3,24,34,0,16,26,20,14,20,0,29,15,18,0,0,27,28,23,0,29,2,0,29,15,10,21,30,2,16,0,20,0,0,0,0,0,0,0,0,0,0,0,0,0,0,0,0,0,0,0,0,0,0,0,0,0,0,0,0,0,0,0,0,0,0,0,0,0,0,0,0,0,0,0,0,0,0,0,0,0,0,0,0,0,0,0,0,0,0,0,0,0,0,0,0,0,0,0,0,0,0,0,0,0,0,0,0,0,0,0,0,0,0,0,0,0,0,0,0,0,0,0,0,0,0,0,0,0,0,0,0,0,0,0,0,0,0],"split_type":[0,0,0,0,0,0,0,0,0,0,0,0,0,0,0,0,0,0,0,0,0,0,0,0,0,0,0,0,0,0,0,0,0,0,0,0,0,0,0,0,0,0,0,0,0,0,0,0,0,0,0,0,0,0,0,0,0,0,0,0,0,0,0,0,0,0,0,0,0,0,0,0,0,0,0,0,0,0,0,0,0,0,0,0,0,0,0,0,0,0,0,0,0,0,0,0,0,0,0,0,0,0,0,0,0,0,0,0,0,0,0,0,0,0,0,0,0,0,0,0,0,0,0,0,0,0,0,0,0,0,0,0,0,0,0,0,0,0,0,0,0,0,0,0,0,0,0,0,0,0,0,0,0,0,0,0,0,0,0,0,0,0,0,0,0,0,0,0,0,0,0,0,0,0,0,0,0,0,0,0,0,0,0,0,0,0,0,0,0,0,0,0,0,0,0,0,0,0,0,0,0,0,0,0,0,0,0,0,0,0,0,0,0,0,0,0,0,0,0,0,0,0,0,0,0,0,0,0,0,0,0,0,0,0,0,0,0,0,0,0,0,0,0,0,0,0,0,0,0,0,0,0,0,0,0,0,0,0,0,0,0,0,0,0,0,0,0,0,0,0,0,0,0,0,0,0,0,0,0,0,0],"sum_hessian":[4.2275234E3,2.882926E3,1.3445972E3,1.7867322E3,1.096194E3,1.2780685E3,6.652872E1,4.2591528E2,1.3608169E3,3.5712177E2,7.390722E2,9.726098E2,3.0545865E2,3.0172315E0,6.3511486E1,2.1051967E2,2.153956E2,6.169009E2,7.43916E2,8.726407E1,2.698577E2,3.1585782E2,4.232144E2,5.5411224E2,4.1849753E2,2.055422E2,9.991643E1,3.85056E1,1.7201407E2,1.8627498E2,2.912062E1,5.5292706E2,6.3973866E1,7.2275806E2,2.1157955E1,4.6603245E1,4.0660828E1,1.4202498E2,1.2783271E2,6.1795807E1,2.5406203E2,2.1822946E2,2.0498492E2,1.8372055E2,3.7039172E2,2.3143595E1,3.9535394E2,3.9936672E1,1.6560553E2,5.8324524E1,4.15919E1,1.2623491E1,2.5882107E1,1.5387047E2,1.8143595E1,1.4798822E1,1.7147615E2,1.854308E1,1.0577541E1,3.7123795E2,1.8168912E2,4.002872E0,5.9970993E1,6.3249855E1,6.595082E2,9.540207E0,1.1617748E1,3.631591E1,1.0287334E1,3.7373493E1,3.2873347E0,9.28159E0,1.1855112E2,4.5516944E0,5.724411E1,1.40028E2,1.1403403E2,1.3114876E1,2.051146E2,1.555685E2,4.9416424E1,1.23936386E2,5.9784172E1,5.156591E1,3.188258E2,7.5143595E0,1.5629235E1,3.5042934E1,3.60311E2,5.554566E0,3.4382107E1,8.079552E1,8.481002E1,2.4830414E1,3.349411E1,3.504882E1,6.5430784E0,3.0172315E0,9.60626E0,1.6554565E1,9.327541E0,5.804566E0,1.480659E2,4.505744E0,1.3637852E1,8.005744E0,6.7930784E0,1.6520892E2,6.2672315E0,3.7758472E0,1.4767231E1,6.8217974E0,3.7557437E0,7.129882E1,2.9993912E2,8.3063034E1,9.8626076E1,5.1942272E1,8.028719E0,4.5850517E1,1.739934E1,5.9708014E2,6.242806E1,6.5114875E0,3.028719E0,2.8525703E1,7.7902064E0,4.281591E0,6.005744E0,3.1827541E1,5.5459504E0,6.252872E0,3.028719E0,1.5583285E1,1.0296783E2,4.5146465E1,1.2097645E1,1.02016655E2,3.801134E1,1.8048822E1,9.598521E1,9.850516E0,3.2643595E0,2.4655083E1,1.804595E2,1.2775818E2,2.781031E1,5.2701035E0,4.4146324E1,6.697674E1,5.695965E1,2.2910826E1,3.687335E1,9.5086155E0,4.2057293E1,3.2471138E1,2.8635468E2,9.85626E0,5.772975E0,2.5746983E1,9.29595E0,3.5199783E2,8.313182E0,2.6318926E1,8.063182E0,3.5143595E0,7.728116E1,3.8588882E1,4.6221138E1,1.7784462E1,7.0459504E0,7.275847E0,2.6218264E1,2.6767231E1,8.28159E0,3.028719E0,3.5143595E0,8.255744E0,8.298822E0,3.2614875E0,6.066054E0,1.23962524E2,2.4103388E1,1.0617748E1,3.0201032E0,3.0057437E0,3.7873347E0,4.5086155E0,1.6070032E2,2.7301678E2,2.6922314E1,5.651996E1,2.654308E1,2.1971136E1,7.665494E1,4.8686527E1,3.2557437E0,4.028719E0,4E0,3.4790207E1,1.106031E1,1.3637852E1,3.7614875E0,5.807641E2,1.6316053E1,4.2071796E1,2.035626E1,1.0330413E1,1.819529E1,4.7586155E0,3.031591E0,1.1304566E1,2.0522976E1,7.2586155E0,8.32467E0,2.3925186E1,7.904265E1,8.818926E0,3.632754E1,6.068926E0,6.028719E0,5.787335E0,9.622932E1,8.772975E0,2.9238367E1,1.4020103E1,4.028719E0,5.9134834E1,3.6850372E1,5.7586155E0,1.8896467E1,1.6787622E2,1.2583285E1,9.716054E1,3.0597645E1,1.1048822E1,1.6761488E1,4.2672315E0,3.987909E1,1.7939545E1,4.903719E1,5.291657E1,4.0430784E0,1.079595E1,1.2114876E1,3.3603245E1,3.2701032E0,1.6669441E1,2.5387852E1,2.614934E1,6.3217974E0,1.5996739E2,1.26387276E2,2.1729752E1,4.0172315E0,3E0,6.2959504E0,8.316053E0,3.4368176E2,4.5516944E0,3.7614875E0,2.279595E1,3.5229752E0,3.2643595E0,4.7988224E0,3.7701032E0,7.3511055E1,7.5430784E0,3.1045805E1,1.1597645E1,3.4623493E1,9.534463E0,8.25E0,3.0057437E0,4.0402064E0,4.252872E0,3.0229752E0,2.3206778E1,3.0114875E0,4.252872E0,4.028719E0],"tree_param":{"num_deleted":"0","num_feature":"35","num_nodes":"281","size_leaf_vector":"0"}},{"base_weights":[-4.049799E-3,-3.6281547E-1,8.232238E-1,-7.826735E-1,4.312241E-1,9.748649E-1,-1.8097799E0,5.2223817E-2,-1.0457258E0,1.1130848E0,8.5741185E-2,4.24402E-2,1.1249348E0,-8.62179E-3,-1.877439E0,-7.028506E-1,6.2297636E-1,-1.2494363E0,-1.9215213E-1,1.0812153E-1,1.4032452E0,-3.3341497E-1,6.2141013E-1,1.3867047E0,-1.3736609E-1,1.3302153E0,6.319894E-1,-8.339281E-3,-3.391096E-2,-8.72251E-1,1.0091134E0,7.740271E-1,-9.852912E-1,-8.6290175E-1,-1.544891E0,-5.6238186E-1,8.033962E-1,-3.5150972E-1,1.0789453E0,-2.664187E-2,1.4453281E0,2.1196373E-1,-6.956985E-1,9.825553E-2,1.2472097E0,-6.852439E-3,3.2564767E-2,-4.3586332E-1,6.02992E-1,-6.05256E-1,1.3976141E0,8.0745393E-1,-8.3339834E-1,-1.0323961E0,7.540153E-1,-9.237722E-3,2.7086645E-2,9.450266E-1,-3.7905368E-1,-2.8853208E-2,1.820319E-2,-9.7934324E-1,5.487096E-1,-1.6016685E0,-6.6418135E-1,7.319018E-1,-7.795212E-1,4.005702E-1,1.5680907E0,-1.0865891E0,1.3072103E-1,2.6743975E-2,6.79211E-2,3.162771E-2,1.1506696E0,-4.1269648E-1,5.9198284E-1,1.0585431E0,-8.161847E-1,9.4625705E-1,-3.041186E-1,-3.795042E-2,1.3648324E0,-7.409687E-1,4.867592E-1,-5.6855166E-1,1.1270161E0,-9.6566474E-1,2.0033276E-2,1.2018372E0,1.7665733E0,4.0884163E-2,1.0171361E0,-1.4585975E0,2.4743167E-1,-1.2745224E0,-3.3135006E-1,1.3365283E0,-2.2571571E-2,2.9783398E-1,1.1826625E0,2.6257502E-2,-7.888036E-1,-1.2048091E0,-4.1229847E-1,-8.9028233E-1,1.0636603E0,-1.6674446E0,-9.0394497E-1,-8.8471013E-1,1.283263E-2,1.1472477E0,-1.8229928E-2,-9.5265025E-1,7.2541815E-1,-2.2515462E-1,1.057657E0,8.9198016E-5,3.1002855E-2,-2.6901692E-1,-2.6925571E-2,-9.8846394E-1,5.8940303E-1,-1.4792611E-2,1.9470768E-2,8.203195E-1,1.6249771E0,1.6020706E-2,-1.4101645E0,9.3156433E-1,-5.588404E-2,2.606092E-2,-8.820414E-3,-9.5305145E-1,1.6267751E-1,1.2048723E0,-1.2308992E-2,2.8759003E-1,-7.9294854E-1,2.0844938E-2,-7.818118E-1,1.2672676E-1,1.488154E0,-1.2279216E0,-1.2229274E-1,-9.330053E-3,8.863354E-1,2.792202E-1,-2.9263042E-2,-6.7798425E-3,1.3735533E0,-1.3422542E0,6.4432067E-3,6.9908565E-1,1.4551371E0,1.8226278E0,2.458696E-1,1.343823E0,-2.989792E-1,2.141991E-1,1.2056735E0,-2.8829841E-2,-4.2006075E-3,-5.607171E-1,2.1102445E-2,1.7469693E-2,-2.34647E-2,2.831391E-3,-2.0646194E-2,2.9865855E-2,2.2436853E-3,-2.1565093E-2,8.44356E-3,-1.4925983E-2,2.1822793E-2,1.2344483E-2,-2.3311524E-2,5.113353E-3,-2.2545323E-2,2.1644862E-2,-9.2616E-3,-2.5412658E-2,4.164473E-3,-1.0344207E-2,2.5647793E-2,1.6028058E-3,-2.9539458E-2,-5.278697E-3,-2.5155205E-2,2.4460873E-3,-2.019027E-2,3.195617E-2,7.336959E-3,-9.421031E-3,-2.5313126E-2,1.8541869E-2,-2.8469341E-3,-1.7749386E-2,1.0834693E-2,2.6217343E-2,1.9659298E-4,-1.8068438E-2,1.184137E-2,4.4485168E-3,-2.7323345E-2,-3.2692295E-3,2.356635E-2,7.681814E-3,2.6670903E-2,1.9161188E-3,2.996329E-2,6.7981044E-3,-2.3304226E-2,-2.959097E-2,-5.367594E-3,1.7671541E-3,2.2434713E-2,-9.359913E-3,1.6361346E-2,1.7844113E-2,-1.7734457E-2,-8.21924E-3,1.8414833E-2,-9.573555E-3,2.467301E-2,1.4244522E-2,-1.9105239E-2,-2.327906E-2,-1.6847455E-4,3.9177123E-3,-2.7570935E-2,-8.4112305E-3,2.6131928E-2,1.1024966E-2,2.8271988E-2,1.849387E-3,-2.399E-2,-2.3022473E-2,3.1247365E-3,3.1447774E-3,3.065953E-2,1.7345415E-2,-9.308013E-3,9.727532E-3,2.9860908E-2,-2.9619446E-2,-1.7868568E-5,-1.9622786E-2,1.4358295E-2,3.0064646E-2,2.0815909E-2,4.92906E-3,3.2390937E-2,2.0777432E-2,-1.9687543E-2,3.0901873E-2,1.8802446E-3,-1.4808244E-2,1.795049E-2,-5.0438354E-3,2.2109188E-2,-6.9297855E-3,2.2908548E-2,-2.365341E-2,8.969106E-3],"categories":[],"categories_nodes":[],"categories_segments":[],"categories_sizes":[],"default_left":[0,0,0,0,0,0,0,0,0,0,0,0,0,0,0,0,0,0,0,0,0,0,0,0,0,0,0,0,0,0,0,0,0,0,0,0,0,0,0,0,0,0,0,0,0,0,0,0,0,0,0,0,0,0,0,0,0,0,0,0,0,0,0,0,0,0,0,0,0,0,0,0,0,0,0,0,0,0,0,0,0,0,0,0,0,0,0,0,0,0,0,0,0,0,0,0,0,0,0,0,0,0,0,0,0,0,0,0,0,0,0,0,0,0,0,0,0,0,0,0,0,0,0,0,0,0,0,0,0,0,0,0,0,0,0,0,0,0,0,0,0,0,0,0,0,0,0,0,0,0,0,0,0,0,0,0,0,0,0,0,0,0,0,0,0,0,0,0,0,0,0,0,0,0,0,0,0,0,0,0,0,0,0,0,0,0,0,0,0,0,0,0,0,0,0,0,0,0,0,0,0,0,0,0,0,0,0,0,0,0,0,0,0,0,0,0,0,0,0,0,0,0,0,0,0,0,0,0,0,0,0,0,0,0,0,0,0,0,0,0,0,0,0,0,0,0,0,0,0,0,0,0,0,0,0,0,0,0,0,0,0,0,0,0,0],"id":1,"left_children":[1,3,5,7,9,11,13,15,17,19,21,23,25,-1,27,29,31,33,35,37,39,41,43,45,47,49,51,-1,-1,53,55,57,59,61,63,65,67,69,71,-1,73,75,77,79,81,-1,-1,83,85,87,89,91,93,95,97,-1,-1,99,101,-1,-1,103,105,107,109,111,113,115,117,119,121,-1,123,-1,125,127,129,131,133,135,137,139,141,143,145,147,149,151,-1,153,155,157,159,161,163,165,167,169,-1,171,173,-1,175,177,179,181,183,185,187,189,-1,191,-1,193,195,197,199,-1,-1,201,-1,203,205,-1,-1,207,209,211,213,215,217,-1,-1,219,221,223,-1,225,227,-1,229,231,233,235,237,-1,239,241,-1,-1,243,245,-1,247,249,251,253,255,257,259,261,-1,-1,263,-1,-1,-1,-1,-1,-1,-1,-1,-1,-1,-1,-1,-1,-1,-1,-1,-1,-1,-1,-1,-1,-1,-1,-1,-1,-1,-1,-1,-1,-1,-1,-1,-1,-1,-1,-1,-1,-1,-1,-1,-1,-1,-1,-1,-1,-1,-1,-1,-1,-1,-1,-1,-1,-1,-1,-1,-1,-1,-1,-1,-1,-1,-1,-1,-1,-1,-1,-1,-1,-1,-1,-1,-1,-1,-1,-1,-1,-1,-1,-1,-1,-1,-1,-1,-1,-1,-1,-1,-1,-1,-1,-1,-1,-1,-1,-1,-1,-1,-1,-1,-1],"loss_changes":[1.2505652E3,9.8014307E2,5.1065778E2,4.2234448E2,2.3951915E2,1.686781E2,5.2929535E0,1.9938138E2,2.5400635E2,9.956879E1,1.5203094E2,4.084635E1,1.0425696E2,0E0,4.571747E0,5.864827E1,6.475838E1,1.3345825E2,1.0472525E2,3.5050674E1,3.485193E1,7.522868E1,9.717353E1,1.7502808E1,3.3250423E1,9.637842E1,7.967545E1,0E0,0E0,4.8125107E1,1.6027306E1,4.7951675E1,3.2655243E1,8.4956116E1,3.2323364E1,5.8690758E1,2.3121792E1,1.9102318E1,1.1330191E1,0E0,2.5802795E1,3.6430866E1,4.9173073E1,5.5889977E1,2.0494156E1,0E0,0E0,3.0469402E1,2.7229113E1,1.7083637E1,4.9018066E1,4.414583E1,2.2895567E1,2.7741318E1,2.1807926E1,0E0,0E0,3.2020157E1,2.573E1,0E0,0E0,6.020758E1,3.042264E1,2.7246826E1,1.3633854E1,2.345503E1,4.6958725E1,2.1553175E1,8.308914E0,7.4438553E0,1.7621502E1,0E0,9.322235E0,0E0,2.170726E1,2.493188E1,2.0994267E1,1.0909538E1,2.888388E1,2.3317825E1,3.2412853E1,1.2182358E1,1.8732315E1,2.4184624E1,1.1547981E1,1.3602465E1,1.182843E1,1.1320057E1,0E0,5.8286194E1,2.029242E1,2.7009624E1,3.24133E1,4.479912E0,1.0797806E1,1.969281E1,1.8562643E1,5.8603134E0,0E0,1.69178E1,2.0999512E1,0E0,2.2690845E1,4.2463196E1,2.6931593E1,7.326765E0,2.061488E1,1.9984985E1,1.7594173E1,1.0296999E1,0E0,1.1560223E1,0E0,3.1867752E1,5.768198E0,1.8850492E1,1.170088E1,0E0,0E0,7.035439E0,0E0,7.521387E0,1.4444247E1,0E0,0E0,2.3123985E1,7.5846405E0,2.1441736E1,4.895096E0,1.8034431E1,1.6467228E1,0E0,0E0,2.3263565E1,1.5757945E1,1.7204277E1,0E0,3.7928288E1,2.5714016E1,0E0,6.948391E0,1.0931885E1,1.1223602E1,8.700417E0,1.3394481E1,0E0,1.1851699E1,5.6036406E0,0E0,0E0,6.1785507E0,7.9782887E0,0E0,3.5699394E1,1.9495605E1,9.386108E0,1.3977034E1,6.3785286E0,3.596764E1,2.2619526E1,2.9248459E1,0E0,0E0,7.2847166E0,0E0,0E0,0E0,0E0,0E0,0E0,0E0,0E0,0E0,0E0,0E0,0E0,0E0,0E0,0E0,0E0,0E0,0E0,0E0,0E0,0E0,0E0,0E0,0E0,0E0,0E0,0E0,0E0,0E0,0E0,0E0,0E0,0E0,0E0,0E0,0E0,0E0,0E0,0E0,0E0,0E0,0E0,0E0,0E0,0E0,0E0,0E0,0E0,0E0,0E0,0E0,0E0,0E0,0E0,0E0,0E0,0E0,0E0,0E0,0E0,0E0,0E0,0E0,0E0,0E0,0E0,0E0,0E0,0E0,0E0,0E0,0E0,0E0,0E0,0E0,0E0,0E0,0E0,0E0,0E0,0E0,0E0,0E0,0E0,0E0,0E0,0E0,0E0,0E0,0E0,0E0,0E0,0E0,0E0,0E0,0E0,0E0,0E0,0E0,0E0,0E0],"parents":[2147483647,0,0,1,1,2,2,3,3,4,4,5,5,6,6,7,7,8,8,9,9,10,10,11,11,12,12,14,14,15,15,16,16,17,17,18,18,19,19,20,20,21,21,22,22,23,23,24,24,25,25,26,26,29,29,30,30,31,31,32,32,33,33,34,34,35,35,36,36,37,37,38,38,40,40,41,41,42,42,43,43,44,44,47,47,48,48,49,49,50,50,51,51,52,52,53,53,54,54,57,57,58,58,61,61,62,62,63,63,64,64,65,65,66,66,67,67,68,68,69,69,70,70,72,72,74,74,75,75,76,76,77,77,78,78,79,79,80,80,81,81,82,82,83,83,84,84,85,85,86,86,87,87,89,89,90,90,91,91,92,92,93,93,94,94,95,95,96,96,97,97,99,99,100,100,102,102,103,103,104,104,105,105,106,106,107,107,108,108,109,109,111,111,113,113,114,114,115,115,116,116,119,119,121,121,122,122,125,125,126,126,127,127,128,128,129,129,130,130,133,133,134,134,135,135,137,137,138,138,140,140,141,141,142,142,143,143,144,144,146,146,147,147,150,150,151,151,153,153,154,154,155,155,156,156,157,157,158,158,159,159,160,160,163,163],"right_children":[2,4,6,8,10,12,14,16,18,20,22,24,26,-1,28,30,32,34,36,38,40,42,44,46,48,50,52,-1,-1,54,56,58,60,62,64,66,68,70,72,-1,74,76,78,80,82,-1,-1,84,86,88,90,92,94,96,98,-1,-1,100,102,-1,-1,104,106,108,110,112,114,116,118,120,122,-1,124,-1,126,128,130,132,134,136,138,140,142,144,146,148,150,152,-1,154,156,158,160,162,164,166,168,170,-1,172,174,-1,176,178,180,182,184,186,188,190,-1,192,-1,194,196,198,200,-1,-1,202,-1,204,206,-1,-1,208,210,212,214,216,218,-1,-1,220,222,224,-1,226,228,-1,230,232,234,236,238,-1,240,242,-1,-1,244,246,-1,248,250,252,254,256,258,260,262,-1,-1,264,-1,-1,-1,-1,-1,-1,-1,-1,-1,-1,-1,-1,-1,-1,-1,-1,-1,-1,-1,-1,-1,-1,-1,-1,-1,-1,-1,-1,-1,-1,-1,-1,-1,-1,-1,-1,-1,-1,-1,-1,-1,-1,-1,-1,-1,-1,-1,-1,-1,-1,-1,-1,-1,-1,-1,-1,-1,-1,-1,-1,-1,-1,-1,-1,-1,-1,-1,-1,-1,-1,-1,-1,-1,-1,-1,-1,-1,-1,-1,-1,-1,-1,-1,-1,-1,-1,-1,-1,-1,-1,-1,-1,-1,-1,-1,-1,-1,-1,-1,-1,-1],"split_conditions":[-4E-1,2.36E1,4.4E-1,7.268E0,7.268E0,2.57E1,3.8E1,3.674E0,2.3E1,3.158E0,1.95E1,5.212E0,9.95E1,-8.62179E-3,1.94E1,-6.35E0,1.116E2,1.085E2,2E-2,4.15E1,1.483E2,1.069E2,7.382E0,3.6088E1,1.27E2,7.242E0,1.121E2,-8.339281E-3,-3.391096E-2,1.125E2,1.21E0,4.58E0,2E1,3.4E0,1.391E2,-1.6666E2,8.65E1,8.56E1,2.578E0,-2.664187E-2,9.69E1,1.48E1,4.865E1,-1.6408E2,3.28E1,-6.852439E-3,3.2564767E-2,2.62E1,3.6846E1,1.39E2,1.307E2,3.667E1,2.396E2,6.22E-1,1.08E2,-9.237722E-3,2.7086645E-2,1.52E1,4.21E1,-2.8853208E-2,1.820319E-2,1.23E2,8.98E0,2.272E2,1.62E0,2.38E1,9.0066E1,8.7E-1,1.4E2,7.55E1,9.98E0,2.6743975E-2,4.4E0,3.162771E-2,9.3E1,4.64E0,3.79E2,1.49E2,1.36E2,5.31E0,4.3E0,6.32E1,1.026E2,1.87E1,7.336E0,1.097E2,7.2E0,2.182E1,2.0033276E-2,1.76E1,5.7E0,7.078E0,1.06E2,1.42E0,2.64E0,9.29E1,1.376E2,7.36E0,-2.2571571E-2,4.02E-1,9.11E1,2.6257502E-2,7.312E0,4.161E1,-3.3507E2,4.36E0,2.99E1,-2.9918E2,5.22E-1,7.64E1,1.283263E-2,2.58E0,-1.8229928E-2,1.093E2,3.749E1,1.222E2,2.23E0,8.9198016E-5,3.1002855E-2,2.92E1,-2.6925571E-2,7.42E1,2.088E0,-1.4792611E-2,1.9470768E-2,1.72E2,2.872E1,9.36E0,-1.97E1,2.98E1,2.642E2,2.606092E-2,-8.820414E-3,8.6E1,3.7312E1,3.622E1,-1.2308992E-2,4.3E0,3.24E1,2.0844938E-2,7.426E0,4.234E1,2.128E1,9.51E1,8.72E0,-9.330053E-3,4.04E1,-1E-1,-2.9263042E-2,-6.7798425E-3,1.92E0,1.175E2,6.4432067E-3,-7E-2,1.079E2,3.3E0,1.083E2,2.36E2,2.474E1,2.16E1,2.85E1,-2.8829841E-2,-4.2006075E-3,4.25E0,2.1102445E-2,1.7469693E-2,-2.34647E-2,2.831391E-3,-2.0646194E-2,2.9865855E-2,2.2436853E-3,-2.1565093E-2,8.44356E-3,-1.4925983E-2,2.1822793E-2,1.2344483E-2,-2.3311524E-2,5.113353E-3,-2.2545323E-2,2.1644862E-2,-9.2616E-3,-2.5412658E-2,4.164473E-3,-1.0344207E-2,2.5647793E-2,1.6028058E-3,-2.9539458E-2,-5.278697E-3,-2.5155205E-2,2.4460873E-3,-2.019027E-2,3.195617E-2,7.336959E-3,-9.421031E-3,-2.5313126E-2,1.8541869E-2,-2.8469341E-3,-1.7749386E-2,1.0834693E-2,2.6217343E-2,1.9659298E-4,-1.8068438E-2,1.184137E-2,4.4485168E-3,-2.7323345E-2,-3.2692295E-3,2.356635E-2,7.681814E-3,2.6670903E-2,1.9161188E-3,2.996329E-2,6.7981044E-3,-2.3304226E-2,-2.959097E-2,-5.367594E-3,1.7671541E-3,2.2434713E-2,-9.359913E-3,1.6361346E-2,1.7844113E-2,-1.7734457E-2,-8.21924E-3,1.8414833E-2,-9.573555E-3,2.467301E-2,1.4244522E-2,-1.9105239E-2,-2.327906E-2,-1.6847455E-4,3.9177123E-3,-2.7570935E-2,-8.4112305E-3,2.6131928E-2,1.1024966E-2,2.8271988E-2,1.849387E-3,-2.399E-2,-2.3022473E-2,3.1247365E-3,3.1447774E-3,3.065953E-2,1.7345415E-2,-9.308013E-3,9.727532E-3,2.9860908E-2,-2.9619446E-2,-1.7868568E-5,-1.9622786E-2,1.4358295E-2,3.0064646E-2,2.0815909E-2,4.92906E-3,3.2390937E-2,2.0777432E-2,-1.9687543E-2,3.0901873E-2,1.8802446E-3,-1.4808244E-2,1.795049E-2,-5.0438354E-3,2.2109188E-2,-6.9297855E-3,2.2908548E-2,-2.365341E-2,8.969106E-3],"split_indices":[34,15,34,17,17,7,32,17,6,17,6,17,1,0,9,34,18,18,8,12,30,18,11,2,3,11,18,0,0,0,17,25,15,8,3,34,4,14,19,0,1,6,32,34,12,0,0,15,2,3,3,2,30,10,14,0,0,15,32,0,0,3,29,31,8,9,4,19,31,4,29,0,24,0,0,20,14,21,3,22,25,14,21,6,11,18,29,9,0,15,22,17,3,19,20,1,14,11,0,10,13,0,11,32,34,25,7,34,10,14,0,22,0,18,2,21,23,0,0,15,0,4,17,0,0,31,28,17,34,15,30,0,0,3,2,2,0,24,15,0,11,28,9,1,29,0,15,8,0,0,23,3,0,34,18,25,18,14,9,6,28,0,0,25,0,0,0,0,0,0,0,0,0,0,0,0,0,0,0,0,0,0,0,0,0,0,0,0,0,0,0,0,0,0,0,0,0,0,0,0,0,0,0,0,0,0,0,0,0,0,0,0,0,0,0,0,0,0,0,0,0,0,0,0,0,0,0,0,0,0,0,0,0,0,0,0,0,0,0,0,0,0,0,0,0,0,0,0,0,0,0,0,0,0,0,0,0,0,0,0,0,0,0,0,0],"split_type":[0,0,0,0,0,0,0,0,0,0,0,0,0,0,0,0,0,0,0,0,0,0,0,0,0,0,0,0,0,0,0,0,0,0,0,0,0,0,0,0,0,0,0,0,0,0,0,0,0,0,0,0,0,0,0,0,0,0,0,0,0,0,0,0,0,0,0,0,0,0,0,0,0,0,0,0,0,0,0,0,0,0,0,0,0,0,0,0,0,0,0,0,0,0,0,0,0,0,0,0,0,0,0,0,0,0,0,0,0,0,0,0,0,0,0,0,0,0,0,0,0,0,0,0,0,0,0,0,0,0,0,0,0,0,0,0,0,0,0,0,0,0,0,0,0,0,0,0,0,0,0,0,0,0,0,0,0,0,0,0,0,0,0,0,0,0,0,0,0,0,0,0,0,0,0,0,0,0,0,0,0,0,0,0,0,0,0,0,0,0,0,0,0,0,0,0,0,0,0,0,0,0,0,0,0,0,0,0,0,0,0,0,0,0,0,0,0,0,0,0,0,0,0,0,0,0,0,0,0,0,0,0,0,0,0,0,0,0,0,0,0,0,0,0,0,0,0,0,0,0,0,0,0,0,0,0,0,0,0,0,0,0,0,0,0],"sum_hessian":[4.211526E3,2.9379707E3,1.273555E3,1.9218065E3,1.0161642E3,1.2047976E3,6.875746E1,4.6062805E2,1.4611785E3,3.4097626E2,6.751879E2,1.6720296E2,1.0375946E3,3.7633111E0,6.4994156E1,1.9819519E2,2.6243286E2,1.1792739E3,2.8190457E2,7.6700096E1,2.6427615E2,3.7900076E2,2.9618713E2,1.8934322E1,1.4826865E2,7.313395E2,3.0625516E2,3.0109305E0,6.1983223E1,1.8079579E2,1.7399406E1,2.403752E2,2.2057657E1,5.1258936E2,6.666845E2,2.0580415E2,7.6100426E1,5.2487907E1,2.421219E1,3.2497077E0,2.6102646E2,1.5143967E2,2.2756111E2,1.619541E2,1.3423305E2,4.016615E0,1.49177065E1,1.059593E2,4.230934E1,2.4341839E1,7.069976E2,2.7390674E2,3.234842E1,1.6492055E2,1.58752365E1,4.5166273E0,1.2882779E1,2.0948888E2,3.088633E1,1.6759264E1,5.2983937E0,4.7381165E2,3.8777714E1,6.2553876E2,4.114571E1,2.922638E1,1.7657777E2,5.0841793E1,2.5258629E1,2.029633E1,3.2191578E1,1.6417395E1,7.794795E0,1.149807E2,1.4604576E2,5.7249397E1,9.419026E1,1.412467E1,2.1343645E2,5.1682278E1,1.1027183E2,1.1312171E1,1.2292087E2,7.977508E1,2.618422E1,1.3049663E1,2.925968E1,2.0555283E1,3.7865562E0,4.6468436E2,2.4231325E2,5.9087128E1,2.1481961E2,2.027244E1,1.2075978E1,1.21974976E2,4.2945576E1,1.2622479E1,3.2527564E0,5.6867012E1,1.5262186E2,5.053774E0,2.5832556E1,3.3820956E2,1.356021E2,1.0027561E1,2.8750154E1,5.70378E2,5.516077E1,3.585325E1,5.292461E0,2.396554E1,5.2608404E0,1.5868909E2,1.7888689E1,2.637909E1,2.4462706E1,3.0169287E0,2.2241701E1,7.786394E0,1.2509934E1,9.022253E0,2.3169325E1,4.2608237E0,3.533971E0,8.769596E1,5.8349792E1,4.0728153E1,1.6521246E1,6.1511116E1,3.2679146E1,1.11135E1,3.01117E0,1.8727728E2,2.6159164E1,4.4909744E1,6.772532E0,5.007263E1,6.0199196E1,4.039751E0,7.27242E0,1.1318168E1,1.116027E2,4.4088646E1,3.5686436E1,7.278079E0,1.8906141E1,7.800263E0,5.2494E0,4.016887E0,2.5242792E1,1.6024124E1,4.53116E0,1.5694292E2,3.0774146E2,2.3350742E2,8.805834E0,1.1612835E1,4.7474293E1,4.1255997E1,1.7356361E2,1.7258236E1,3.0142033E0,6.774718E0,5.3012605E0,3.0282547E0,1.18946724E2,2.7666119E1,1.5279457E1,9.352595E0,3.2698843E0,5.5080214E0,5.1358994E1,4.261029E0,1.4836084E2,6.803644E0,1.9028912E1,1.7613417E1,3.2059613E2,8.329352E0,1.2727274E2,6.505056E0,3.5225055E0,5.519285E0,2.323087E1,6.286702E0,5.640913E2,2.6623753E1,2.853702E1,7.544716E0,2.8308535E1,1.1630651E1,1.23348875E1,8.734919E1,7.13399E1,1.2863472E1,5.0252175E0,1.3532869E1,1.2846219E1,1.6920637E1,7.5420685E0,4.2580853E0,3.5283089E0,3.0198195E0,6.002434E0,1.1808968E1,1.1360357E1,5.7896484E1,2.979948E1,3.2695436E0,5.508025E1,3.2467545E1,8.260611E0,1.2754317E1,3.7669284E0,1.861018E1,4.2900936E1,2.2340624E1,1.0338524E1,5.0454597E0,1.8223183E2,1.5564935E1,1.059423E1,4.5167613E0,4.0392982E1,3.6542118E1,1.3530515E1,3.5310513E1,2.4888685E1,3.5227487E0,3.7496715E0,8.283989E0,3.0341783E0,1.5113909E1,9.648879E1,4.2755804E0,3.9813065E1,6.5078983E0,2.9178535E1,1.1068641E1,7.837499E0,4.03659E0,3.7636728E0,8.059337E0,1.7183455E1,1.2504458E1,3.5196652E0,9.269444E0,1.4767346E2,1.523418E2,1.5539966E2,4.2779284E0,2.2922949E2,5.300557E0,3.5052764E0,8.343337E0,3.269498E0,3.3855778E1,1.3618515E1,2.8384739E1,1.2871258E1,1.0294448E1,1.6326917E2,3.7521486E0,3.022569E0],"tree_param":{"num_deleted":"0","num_feature":"35","num_nodes":"265","size_leaf_vector":"0"}},{"base_weights":[4.4670608E-4,-3.5586223E-1,8.1936455E-1,-7.6541334E-1,4.2109057E-1,9.5992804E-1,-1.7576623E0,4.501237E-2,-1.0184547E0,1.0753474E0,8.746529E-2,9.109372E-2,1.1177945E0,6.0778804E-4,-3.2274764E-2,-8.1896603E-1,5.795297E-1,-1.230028E0,-1.4545456E-1,1.1664518E-1,1.3584696E0,-3.891189E-1,5.735708E-1,1.3478783E0,-1.8652096E-1,6.516067E-1,1.348578E0,-9.9858814E-1,8.753335E-1,1.1601816E0,2.6440644E-1,-8.5968024E-1,-1.5110769E0,-5.0515634E-1,8.4113926E-1,-3.3150417E-1,9.8467886E-1,3.011869E-2,9.4443184E-1,1.00804694E-1,-7.7028435E-1,1.1206815E-1,1.1255716E0,-7.4893075E-1,3.235374E-2,-5.356705E-1,6.403297E-1,2.838135E-1,1.2743076E0,3.4487712E-1,1.4703549E0,-1.3545268E0,-3.658997E-1,1.3834169E0,-1.5446944E-2,-1.739248E-2,1.2608496E0,-1.6352834E-1,8.4775454E-1,-1.1552898E0,-3.7843996E-1,-1.5847067E0,-7.285532E-1,7.1897197E-1,-7.238111E-1,-4.7400427E-1,1.0800122E0,-1.2002548E0,2.331423E-1,2.483632E-2,-1.7809135E-1,6.506798E-1,1.6134285E0,3.871233E-1,-6.045291E-1,5.0967586E-1,-9.2574257E-1,9.8495203E-1,-2.8589228E-1,1.3262492E0,1.7693812E-1,-2.6573021E-2,4.379983E-3,-8.262462E-1,3.7162903E-1,1.1382177E0,-2.7941278E-1,-6.6544724E-1,5.438014E-1,1.6173292E0,5.5205584E-1,-7.7924174E-1,6.2600523E-1,-2.794792E-2,1.4944592E0,-7.924692E-1,-2.7806332E-2,6.240522E-1,-7.2303057E-1,3.1037997E-2,-2.3919283E-4,1.3526442E0,-5.771045E-3,-4.9288312E-1,7.081156E-1,9.8942184E-1,-1.4054279E-2,3.226077E-1,-1.2239774E0,-5.419046E-1,8.494076E-1,-1.6231818E0,-5.4578316E-1,-9.414447E-1,6.9530904E-1,-1.2460956E-2,1.0219243E0,-8.583545E-1,2.6302472E-2,-2.1677472E-2,1.2557996E-2,1.4831926E0,3.955711E-1,4.631755E-3,-2.5570545E-2,-4.0922028E-1,1.0416192E0,1.629692E-2,-2.3051457E-2,-1.8951913E-2,8.065997E-1,3.1966187E-2,6.440572E-1,6.194241E-1,-1.3043139E0,-1.3414538E0,1.3958846E-1,2.6701694E-2,-4.4608888E-1,8.4888524E-1,-1.0273738E0,1.2903914E0,-5.8768964E-1,2.887703E-1,-7.7578026E-1,1.6112921E0,7.507531E-1,2.3271382E-2,-5.343726E-1,-1.1803346E0,-2.582794E-1,-1.4293375E-2,8.0579156E-1,-5.8434163E-3,2.52899E-2,-2.901269E-2,5.1800025E-1,-1.2126302E0,-6.2282085E-2,9.5264155E-1,3.2674942E-2,3.0533275E-2,-4.4761747E-3,-2.5571778E-1,1.387758E0,-1.2539155E0,1.1429297E-2,1.125193E0,-2.6350474E-2,1.7385904E0,1.2430634E0,-2.5288343E-2,7.400289E-5,-2.170868E-2,2.0056585E-2,-1.8237222E-2,1.7847443E-3,2.8544858E-2,1.3883853E-2,1.6363705E-2,-1.1912702E-2,-2.0268712E-2,1.976258E-2,-6.767218E-3,2.0841558E-2,2.5171358E-2,-1.9745465E-2,-2.5515327E-2,-1.4383329E-2,-1.1106114E-2,2.2972316E-2,-1.0386183E-2,2.187873E-2,-2.8882144E-2,-9.798462E-3,-2.324262E-2,2.4743332E-3,1.2051855E-2,-1.928976E-2,2.6519263E-2,-1.1136632E-3,2.2563377E-2,-8.865416E-3,-8.465194E-3,-2.371972E-2,2.8451448E-2,-2.01469E-3,-7.5353985E-3,2.1343587E-2,1.7585399E-2,-1.4976918E-2,2.5292544E-2,-3.5345517E-3,-7.102709E-4,2.0770695E-2,-9.080524E-3,2.4567159E-2,1.2539873E-2,-2.3957454E-2,-2.9492192E-2,-1.8833835E-3,-1.545862E-3,-2.793133E-2,1.1365752E-2,-2.570762E-2,-2.55686E-2,7.802175E-3,-4.5174253E-3,2.4104975E-2,-2.0262195E-2,1.2653227E-3,8.7407585E-3,2.9068697E-2,7.934707E-3,-2.1380441E-2,1.0095679E-2,-2.0535462E-2,-1.8994888E-2,1.6677435E-3,2.926021E-2,3.5696558E-3,-2.7364792E-2,1.7391516E-2,3.9168624E-3,-1.9492239E-2,-2.5283186E-2,-6.444106E-3,-2.2585161E-2,5.201843E-4,-5.669653E-3,1.892598E-2,-1.3651775E-2,2.6963279E-2,-2.8510205E-2,5.824409E-3,-1.5922885E-2,2.1914382E-2,-6.8817097E-3,2.0455416E-2,1.8784896E-2,-5.7169786E-3,2.2746716E-2,-1.3737344E-2,5.1219934E-3,2.8215013E-2,-2.9093508E-2,-2.1626914E-3,2.4268646E-2,-5.9674536E-3,1.0581914E-2,-1.6575608E-2,1.8897485E-2,3.131056E-2,1.3232177E-2,2.5428407E-2],"categories":[],"categories_nodes":[],"categories_segments":[],"categories_sizes":[],"default_left":[0,0,0,0,0,0,0,0,0,0,0,0,0,0,0,0,0,0,0,0,0,0,0,0,0,0,0,0,0,0,0,0,0,0,0,0,0,0,0,0,0,0,0,0,0,0,0,0,0,0,0,0,0,0,0,0,0,0,0,0,0,0,0,0,0,0,0,0,0,0,0,0,0,0,0,0,0,0,0,0,0,0,0,0,0,0,0,0,0,0,0,0,0,0,0,0,0,0,0,0,0,0,0,0,0,0,0,0,0,0,0,0,0,0,0,0,0,0,0,0,0,0,0,0,0,0,0,0,0,0,0,0,0,0,0,0,0,0,0,0,0,0,0,0,0,0,0,0,0,0,0,0,0,0,0,0,0,0,0,0,0,0,0,0,0,0,0,0,0,0,0,0,0,0,0,0,0,0,0,0,0,0,0,0,0,0,0,0,0,0,0,0,0,0,0,0,0,0,0,0,0,0,0,0,0,0,0,0,0,0,0,0,0,0,0,0,0,0,0,0,0,0,0,0,0,0,0,0,0,0,0,0,0,0,0,0,0,0,0,0,0,0,0,0,0,0,0,0,0,0,0,0,0,0,0,0,0,0,0,0,0,0,0,0,0,0,0,0,0,0,0,0,0,0,0],"id":2,"left_children":[1,3,5,7,9,11,13,15,17,19,21,23,25,-1,-1,27,29,31,33,35,37,39,41,43,45,47,49,51,53,55,57,59,61,63,65,67,69,-1,71,73,75,77,79,81,-1,83,85,87,89,91,93,95,97,99,-1,-1,101,103,105,107,109,111,113,115,117,119,121,123,125,-1,127,129,131,133,135,137,139,141,143,145,147,-1,-1,149,151,153,155,157,159,161,163,165,167,-1,169,171,-1,173,175,-1,-1,177,-1,179,181,183,-1,185,187,189,191,193,195,197,199,-1,201,203,-1,-1,-1,205,207,-1,-1,209,211,-1,-1,-1,213,-1,215,217,219,221,223,-1,225,227,229,231,233,235,237,239,241,-1,243,245,247,-1,249,-1,-1,-1,251,253,255,257,259,-1,-1,261,263,265,-1,267,269,271,273,-1,-1,-1,-1,-1,-1,-1,-1,-1,-1,-1,-1,-1,-1,-1,-1,-1,-1,-1,-1,-1,-1,-1,-1,-1,-1,-1,-1,-1,-1,-1,-1,-1,-1,-1,-1,-1,-1,-1,-1,-1,-1,-1,-1,-1,-1,-1,-1,-1,-1,-1,-1,-1,-1,-1,-1,-1,-1,-1,-1,-1,-1,-1,-1,-1,-1,-1,-1,-1,-1,-1,-1,-1,-1,-1,-1,-1,-1,-1,-1,-1,-1,-1,-1,-1,-1,-1,-1,-1,-1,-1,-1,-1,-1,-1,-1,-1,-1,-1,-1,-1,-1,-1,-1],"loss_changes":[1.230067E3,9.3504596E2,4.6466296E2,3.9458557E2,2.2136984E2,1.6622412E2,1.027803E1,2.1232333E2,2.7063E2,9.282266E1,1.5614684E2,6.5686554E1,1.09517456E2,0E0,0E0,5.435972E1,5.1656418E1,1.2152551E2,1.0232845E2,3.1133543E1,3.7975983E1,6.3652977E1,8.485754E1,3.708874E1,4.4944077E1,7.789621E1,8.326758E1,3.5393723E1,1.6739977E1,2.2847168E1,4.6415764E1,7.232147E1,3.7424805E1,5.7011463E1,2.4731667E1,2.6267094E1,1.3983295E1,0E0,2.361306E1,3.0497046E1,3.8594643E1,6.3782356E1,2.8662277E1,5.9630313E0,0E0,2.9088184E1,2.1530943E1,5.3695892E1,3.0470688E1,2.4336887E1,4.7545044E1,1.2087173E1,2.1221048E1,7.5693684E0,0E0,0E0,1.44032135E1,3.1288326E1,1.9173992E1,3.2508118E1,3.9820747E1,2.3543213E1,1.8671124E1,1.4808243E1,5.5071175E1,1.230804E1,1.7502022E1,8.403345E0,1.7536093E1,0E0,1.1684555E1,2.4891903E1,6.567276E0,4.2927757E1,2.4127222E1,2.1443745E1,3.1748672E1,2.8363392E1,3.5789524E1,1.9317719E1,2.3378763E1,0E0,0E0,1.6386753E1,1.4672566E1,1.4118675E1,1.9613577E1,1.5407482E1,3.5533974E1,2.067662E1,2.8897745E1,1.1383939E1,1.98693E1,0E0,3.5072998E1,1.6540777E1,0E0,1.7081797E1,1.1575529E1,0E0,0E0,1.278595E1,0E0,2.1731884E1,2.4824364E1,2.0601715E1,0E0,2.5623863E1,2.72128E1,3.0594936E1,1.4268909E1,1.5640747E1,1.2719765E1,1.4378334E1,5.261209E0,0E0,1.1751833E1,3.0973946E1,0E0,0E0,0E0,9.455978E0,1.7979925E1,0E0,0E0,1.2892141E1,7.742655E0,0E0,0E0,0E0,2.6466148E1,0E0,8.0575485E0,1.9246777E1,5.8544617E0,6.867504E0,1.9493893E1,0E0,1.131859E1,6.0937676E0,2.3281845E1,1.334552E1,7.169279E0,2.5443878E1,1.8539448E1,6.644699E0,2.5867653E1,0E0,8.067648E0,1.0360825E1,9.888608E0,0E0,6.692235E0,0E0,0E0,0E0,1.6553387E1,1.631018E1,2.7150879E1,2.7894676E1,2.89992E1,0E0,0E0,1.9395748E1,4.65979E0,5.333637E0,0E0,1.3683956E1,1.647122E1,8.080811E0,2.9745453E1,0E0,0E0,0E0,0E0,0E0,0E0,0E0,0E0,0E0,0E0,0E0,0E0,0E0,0E0,0E0,0E0,0E0,0E0,0E0,0E0,0E0,0E0,0E0,0E0,0E0,0E0,0E0,0E0,0E0,0E0,0E0,0E0,0E0,0E0,0E0,0E0,0E0,0E0,0E0,0E0,0E0,0E0,0E0,0E0,0E0,0E0,0E0,0E0,0E0,0E0,0E0,0E0,0E0,0E0,0E0,0E0,0E0,0E0,0E0,0E0,0E0,0E0,0E0,0E0,0E0,0E0,0E0,0E0,0E0,0E0,0E0,0E0,0E0,0E0,0E0,0E0,0E0,0E0,0E0,0E0,0E0,0E0,0E0,0E0,0E0,0E0,0E0,0E0,0E0,0E0,0E0,0E0,0E0,0E0,0E0,0E0,0E0,0E0,0E0,0E0,0E0,0E0,0E0,0E0],"parents":[2147483647,0,0,1,1,2,2,3,3,4,4,5,5,6,6,7,7,8,8,9,9,10,10,11,11,12,12,15,15,16,16,17,17,18,18,19,19,20,20,21,21,22,22,23,23,24,24,25,25,26,26,27,27,28,28,29,29,30,30,31,31,32,32,33,33,34,34,35,35,36,36,38,38,39,39,40,40,41,41,42,42,43,43,45,45,46,46,47,47,48,48,49,49,50,50,51,51,52,52,53,53,56,56,57,57,58,58,59,59,60,60,61,61,62,62,63,63,64,64,65,65,66,66,67,67,68,68,70,70,71,71,72,72,73,73,74,74,75,75,76,76,77,77,78,78,79,79,80,80,83,83,84,84,85,85,86,86,87,87,88,88,89,89,90,90,91,91,92,92,94,94,95,95,97,97,98,98,101,101,103,103,104,104,105,105,107,107,108,108,109,109,110,110,111,111,112,112,113,113,114,114,116,116,117,117,121,121,122,122,125,125,126,126,130,130,132,132,133,133,134,134,135,135,136,136,138,138,139,139,140,140,141,141,142,142,143,143,144,144,145,145,146,146,148,148,149,149,150,150,152,152,156,156,157,157,158,158,159,159,160,160,163,163,164,164,165,165,167,167,168,168,169,169,170,170],"right_children":[2,4,6,8,10,12,14,16,18,20,22,24,26,-1,-1,28,30,32,34,36,38,40,42,44,46,48,50,52,54,56,58,60,62,64,66,68,70,-1,72,74,76,78,80,82,-1,84,86,88,90,92,94,96,98,100,-1,-1,102,104,106,108,110,112,114,116,118,120,122,124,126,-1,128,130,132,134,136,138,140,142,144,146,148,-1,-1,150,152,154,156,158,160,162,164,166,168,-1,170,172,-1,174,176,-1,-1,178,-1,180,182,184,-1,186,188,190,192,194,196,198,200,-1,202,204,-1,-1,-1,206,208,-1,-1,210,212,-1,-1,-1,214,-1,216,218,220,222,224,-1,226,228,230,232,234,236,238,240,242,-1,244,246,248,-1,250,-1,-1,-1,252,254,256,258,260,-1,-1,262,264,266,-1,268,270,272,274,-1,-1,-1,-1,-1,-1,-1,-1,-1,-1,-1,-1,-1,-1,-1,-1,-1,-1,-1,-1,-1,-1,-1,-1,-1,-1,-1,-1,-1,-1,-1,-1,-1,-1,-1,-1,-1,-1,-1,-1,-1,-1,-1,-1,-1,-1,-1,-1,-1,-1,-1,-1,-1,-1,-1,-1,-1,-1,-1,-1,-1,-1,-1,-1,-1,-1,-1,-1,-1,-1,-1,-1,-1,-1,-1,-1,-1,-1,-1,-1,-1,-1,-1,-1,-1,-1,-1,-1,-1,-1,-1,-1,-1,-1,-1,-1,-1,-1,-1,-1,-1,-1,-1,-1],"split_conditions":[-4E-1,2.36E1,4.4E-1,7.2E0,7.268E0,2.7E1,7.292E0,3.248E0,2.3E1,3.158E0,1.82E1,6.17E0,1.74E1,6.0778804E-4,-3.2274764E-2,-6.35E0,9.69E1,1.085E2,2E-1,4.2E1,9.71E1,1.071E2,7.382E0,7.262E0,1.27E2,1.29E2,3.642E1,5.52E-1,3.198E1,7.1E0,9.16E1,1.185E2,2.272E2,-1.6103E2,2.74E1,8.7E1,2.71E0,3.011869E-2,-9.42E0,4.52E0,3.142E1,-1.6408E2,4.46E0,1.28E1,3.235374E-2,2.59E1,1.097E2,7.35E0,9.99E1,5.58E1,7.18E0,1E0,9.56E1,2.15E0,-1.5446944E-2,-1.739248E-2,1.794E1,1.728E2,7E0,4E1,1.46E0,1.46E2,6.95E1,8.74E1,1E2,1.16E2,3.18E1,2.148E1,7.392E0,2.483632E-2,4.538E1,1.04E2,1.105E2,4.85E0,1.94E0,4.278E0,4.865E1,5.26E0,4.3E0,2.23E0,2.16E0,-2.6573021E-2,4.379983E-3,1.96E1,7.322E0,1.82E0,3.678E1,4.28E1,9.9E1,5.6E0,2.303E1,4.32E1,6.743E1,-2.794792E-2,1.077E2,2.26E1,-2.7806332E-2,-7.22E0,1.84E1,3.1037997E-2,-2.3919283E-4,4.25E0,-5.771045E-3,4.21E1,1.712E2,9.6E1,-1.4054279E-2,-2.147E1,1.004E0,5.928E1,7.35E0,8.644E1,6.34E1,7.2E1,1.84E0,-1.2460956E-2,2.405E1,1.093E2,2.6302472E-2,-2.1677472E-2,1.2557996E-2,1.68E1,2.8E1,4.631755E-3,-2.5570545E-2,1.26E2,9.73E1,1.629692E-2,-2.3051457E-2,-1.8951913E-2,8.1E1,3.1966187E-2,3.802E1,9.844E1,1.185E2,1.151E2,6.38E1,2.6701694E-2,5.35E1,3.22E0,1.4E2,3.04E1,2.15E1,4.52E0,2.594E2,9.18E0,2.44E1,2.3271382E-2,9.76E1,2.4E-1,1.829E1,-1.4293375E-2,3.006E1,-5.8434163E-3,2.52899E-2,-2.901269E-2,6.44E1,3.7668E1,6.698E1,-4E-2,1.5E0,3.0533275E-2,-4.4761747E-3,7.3E0,1.88E0,4.66E0,1.1429297E-2,3.449E1,9.91E1,7.324E0,1.067E2,-2.5288343E-2,7.400289E-5,-2.170868E-2,2.0056585E-2,-1.8237222E-2,1.7847443E-3,2.8544858E-2,1.3883853E-2,1.6363705E-2,-1.1912702E-2,-2.0268712E-2,1.976258E-2,-6.767218E-3,2.0841558E-2,2.5171358E-2,-1.9745465E-2,-2.5515327E-2,-1.4383329E-2,-1.1106114E-2,2.2972316E-2,-1.0386183E-2,2.187873E-2,-2.8882144E-2,-9.798462E-3,-2.324262E-2,2.4743332E-3,1.2051855E-2,-1.928976E-2,2.6519263E-2,-1.1136632E-3,2.2563377E-2,-8.865416E-3,-8.465194E-3,-2.371972E-2,2.8451448E-2,-2.01469E-3,-7.5353985E-3,2.1343587E-2,1.7585399E-2,-1.4976918E-2,2.5292544E-2,-3.5345517E-3,-7.102709E-4,2.0770695E-2,-9.080524E-3,2.4567159E-2,1.2539873E-2,-2.3957454E-2,-2.9492192E-2,-1.8833835E-3,-1.545862E-3,-2.793133E-2,1.1365752E-2,-2.570762E-2,-2.55686E-2,7.802175E-3,-4.5174253E-3,2.4104975E-2,-2.0262195E-2,1.2653227E-3,8.7407585E-3,2.9068697E-2,7.934707E-3,-2.1380441E-2,1.0095679E-2,-2.0535462E-2,-1.8994888E-2,1.6677435E-3,2.926021E-2,3.5696558E-3,-2.7364792E-2,1.7391516E-2,3.9168624E-3,-1.9492239E-2,-2.5283186E-2,-6.444106E-3,-2.2585161E-2,5.201843E-4,-5.669653E-3,1.892598E-2,-1.3651775E-2,2.6963279E-2,-2.8510205E-2,5.824409E-3,-1.5922885E-2,2.1914382E-2,-6.8817097E-3,2.0455416E-2,1.8784896E-2,-5.7169786E-3,2.2746716E-2,-1.3737344E-2,5.1219934E-3,2.8215013E-2,-2.9093508E-2,-2.1626914E-3,2.4268646E-2,-5.9674536E-3,1.0581914E-2,-1.6575608E-2,1.8897485E-2,3.131056E-2,1.3232177E-2,2.5428407E-2],"split_indices":[34,15,34,17,17,7,11,17,6,17,6,17,15,0,0,34,1,18,8,12,1,18,11,11,3,3,2,10,27,29,0,3,31,34,7,14,17,0,34,24,28,34,24,29,0,15,18,11,1,16,11,33,1,23,0,0,29,31,17,32,19,3,5,13,4,3,7,9,11,0,32,31,18,25,19,25,32,22,25,23,22,0,0,6,11,23,2,12,1,22,9,12,32,0,18,9,0,8,15,0,0,25,0,32,30,31,0,34,19,28,11,32,16,0,20,0,9,18,0,0,0,29,6,0,0,14,13,0,0,0,14,0,28,13,3,21,5,0,5,24,3,15,6,24,30,17,15,0,1,8,9,0,28,0,0,0,16,2,32,34,20,0,0,17,23,25,0,27,1,11,3,0,0,0,0,0,0,0,0,0,0,0,0,0,0,0,0,0,0,0,0,0,0,0,0,0,0,0,0,0,0,0,0,0,0,0,0,0,0,0,0,0,0,0,0,0,0,0,0,0,0,0,0,0,0,0,0,0,0,0,0,0,0,0,0,0,0,0,0,0,0,0,0,0,0,0,0,0,0,0,0,0,0,0,0,0,0,0,0,0,0,0,0,0,0,0,0,0,0,0,0,0,0,0,0],"split_type":[0,0,0,0,0,0,0,0,0,0,0,0,0,0,0,0,0,0,0,0,0,0,0,0,0,0,0,0,0,0,0,0,0,0,0,0,0,0,0,0,0,0,0,0,0,0,0,0,0,0,0,0,0,0,0,0,0,0,0,0,0,0,0,0,0,0,0,0,0,0,0,0,0,0,0,0,0,0,0,0,0,0,0,0,0,0,0,0,0,0,0,0,0,0,0,0,0,0,0,0,0,0,0,0,0,0,0,0,0,0,0,0,0,0,0,0,0,0,0,0,0,0,0,0,0,0,0,0,0,0,0,0,0,0,0,0,0,0,0,0,0,0,0,0,0,0,0,0,0,0,0,0,0,0,0,0,0,0,0,0,0,0,0,0,0,0,0,0,0,0,0,0,0,0,0,0,0,0,0,0,0,0,0,0,0,0,0,0,0,0,0,0,0,0,0,0,0,0,0,0,0,0,0,0,0,0,0,0,0,0,0,0,0,0,0,0,0,0,0,0,0,0,0,0,0,0,0,0,0,0,0,0,0,0,0,0,0,0,0,0,0,0,0,0,0,0,0,0,0,0,0,0,0,0,0,0,0,0,0,0,0,0,0,0,0,0,0,0,0,0,0,0,0,0,0],"sum_hessian":[4.213623E3,2.9365178E3,1.2771055E3,1.9229159E3,1.01360187E3,1.211644E3,6.546142E1,4.577342E2,1.4651816E3,3.4156046E2,6.720414E2,1.8654599E2,1.025098E3,3.015721E0,6.2445698E1,1.7474663E2,2.8298758E2,1.179032E3,2.861497E2,7.81939E1,2.6336655E2,3.394448E2,3.3259662E2,3.305374E1,1.5349225E2,3.4069995E2,6.8439813E2,1.583678E2,1.6378832E1,9.860834E1,1.8437923E2,5.1045145E2,6.685805E2,2.1005414E2,7.609556E1,5.197717E1,2.621673E1,1.388679E2,1.2449865E2,1.4885388E2,1.9059091E2,1.818027E2,1.507939E2,6.2688413E0,2.67849E1,1.0816864E2,4.5323605E1,2.1510544E2,1.255945E2,7.4466644E1,6.0993146E2,1.0061999E2,5.7747814E1,1.2871005E1,3.5078266E0,4.0075526E0,9.4600784E1,1.0677239E2,7.760684E1,3.1534506E2,1.951064E2,6.101452E2,5.8435352E1,3.148708E1,1.7856706E2,1.1545591E1,6.4549965E1,2.0031517E1,3.1945654E1,1.8932388E1,7.2843423E0,8.788259E1,3.6616055E1,1.0619637E2,4.2657513E1,2.039454E1,1.7019637E2,5.6468987E1,1.2533372E2,1.241357E2,2.665821E1,3.2493367E0,3.0195048E0,8.19972E1,2.6171438E1,2.9251328E1,1.6072279E1,4.5912273E1,1.6919316E2,8.431241E1,4.128209E1,1.4543035E1,5.992361E1,4.2481256E0,6.0568335E2,3.083627E1,6.9783714E1,1.5111621E1,4.2636192E1,9.855489E0,3.0155163E0,8.958016E1,5.020627E0,7.780714E1,2.8965256E1,7.184096E1,5.765878E0,1.3841075E1,3.0150397E2,1.7267645E2,2.2429947E1,5.8781396E2,2.2331232E1,5.1129444E1,7.305908E0,5.266545E0,2.6220535E1,1.6896915E2,9.597909E0,7.0098524E0,4.535739E0,3.9886948E1,2.4663021E1,3.019379E0,1.7012136E1,1.807683E1,1.3868823E1,3.7825737E0,3.5017686E0,6.763219E0,8.111938E1,2.931155E1,7.304505E0,9.392989E1,1.2266479E1,2.102902E1,2.1628494E1,9.599848E0,1.0794693E1,8.820749E0,1.6137563E2,4.743551E1,9.033479E0,5.7865353E1,6.746836E1,8.1813614E1,4.232208E1,9.843849E0,1.6814362E1,4.9844433E1,3.2152767E1,6.768975E0,1.9402464E1,5.0221386E0,2.4229189E1,5.497049E0,1.0575231E1,2.3543499E1,2.2368776E1,9.3522514E1,7.5670654E1,7.903852E1,5.2738853E0,2.1344713E1,1.9937378E1,1.1015979E1,3.5270553E0,3.3536446E1,2.6387165E1,3.042802E2,3.0140314E2,1.651217E1,1.4324099E1,3.002472E0,1.2109149E1,3.0568035E1,1.2068158E1,5.8591473E1,3.0988688E1,8.571638E0,6.92355E1,5.0065155E0,2.395874E1,9.037928E0,6.2803032E1,7.8300114E0,6.011063E0,1.891874E2,1.1231659E2,1.6510297E2,7.573475E0,4.766476E0,1.7663471E1,5.730118E2,1.4802183E1,1.0010237E1,1.2320994E1,4.2838054E0,4.684564E1,3.0341985E0,4.27171E0,2.24568E1,3.7637348E0,9.739693E1,7.157223E1,3.662028E1,3.2666674E0,1.2551335E1,1.2111685E1,4.036768E0,1.4040062E1,1.0352186E1,3.516637E0,2.5383657E1,5.5735718E1,3.0104136E0,4.294091E0,9.0177986E1,3.7519124E0,8.999964E0,3.2665143E0,3.7695563E0,1.7259464E1,1.6876312E1,4.7521815E0,4.7519093E0,6.042784E0,3.0134027E0,5.807347E0,1.4427704E2,1.7098583E1,1.58609295E1,3.157458E1,3.5253778E0,5.5081015E0,4.8850494E1,9.014859E0,4.961454E1,1.7853823E1,7.829213E1,3.5214882E0,3.4996376E0,3.882244E1,7.5464325E0,9.267929E0,3.7039978E1,1.2804454E1,6.2573276E0,2.589544E1,3.7660878E0,1.5636376E1,4.763641E0,5.8115897E0,1.850973E1,5.033769E0,1.37872505E1,8.581527E0,1.28055935E1,8.071692E1,1.8912895E1,5.675776E1,5.0479393E0,1.6296774E1,3.7739096E0,1.616347E1,7.750102E0,3.265877E0,2.8515541E1,5.020903E0,1.586087E1,1.0526296E1,2.2941263E1,2.8133896E2,9.194712E1,2.0945601E2],"tree_param":{"num_deleted":"0","num_feature":"35","num_nodes":"275","size_leaf_vector":"0"}},{"base_weights":[-6.7319246E-3,-3.586177E-1,8.013543E-1,-8.1506604E-1,3.1004554E-1,9.434366E-1,-1.734869E0,-4.4326514E-2,-1.0455223E0,1.0487416E0,-5.165287E-2,1.1584905E0,2.5946033E-1,-1.3326204E-3,-1.8168731E0,-8.6135405E-1,4.8459265E-1,-1.2366303E0,-2.4759434E-1,6.95435E-2,1.3466587E0,5.2264833E-1,-4.477954E-1,1.3598723E0,6.896053E-1,-7.2112364E-1,5.3484243E-1,-7.660934E-3,-3.2856286E-2,-9.558472E-1,2.440372E-2,6.186457E-1,-1.244422E0,-8.7075037E-1,-1.5030969E0,-5.952407E-1,7.8169346E-1,-2.9151887E-1,1.2138594E0,1.5468034E0,7.3616576E-1,-3.3458555E-1,7.458546E-1,-6.6124797E-1,6.3246876E-1,-1.6097291E-1,1.4320289E0,1.3732249E-1,1.0276674E0,2.3602894E-2,-8.817738E-1,8.5488987E-1,-2.0482895E-1,-1.2019191E0,-1.8185279E-1,9.696584E-1,7.3785126E-2,-3.0325543E-2,2.4408355E-4,-1.0142076E0,6.565399E-2,2.1114048E-1,-1.5250022E0,-7.4326026E-1,1.1026096E0,3.0790904E-1,1.392819E0,3.8807482E-1,-1.1239512E0,2.7850613E-2,-1.1156019E-2,-8.975362E-3,1.5768944E0,2.147507E-1,1.327514E0,2.6752708E-2,-5.314825E-1,4.6949095E-1,1.3739268E0,-1.0491899E0,-1.8245222E-1,1.065974E0,-1.5657399E-2,-3.0359069E-2,4.8536792E-1,1.1118081E0,1.6156626E0,8.643775E-1,-5.9861547E-1,-1.3947925E-1,1.2499961E0,-1.0650251E0,9.502812E-3,1.3803318E0,3.3076844E-1,3.3520907E-1,-1.071262E0,1.3168488E-2,-1.3066684E0,-8.226593E-1,5.924358E-1,-2.3808569E-2,1.0442863E0,-4.020124E-1,7.3654157E-1,-1.0797657E0,7.863979E-1,4.213761E-1,-9.395924E-1,2.2926217E-2,-1.1919271E-2,-1.5784945E0,-8.4850276E-1,4.715703E-1,-9.6566546E-1,3.146321E-5,2.4680346E-2,-4.7059205E-1,8.802548E-1,1.8034548E-3,2.7211564E-2,1.1183738E0,-7.143316E-1,-1.3425697E0,1.3053599E-2,1.6203663E0,2.5575054E-1,5.2448004E-1,-2.3275128E-2,1.5823468E0,-3.2309224E-3,4.6482682E-1,-8.784642E-1,-1.1222646E0,5.757165E-1,-8.600196E-3,1.5088612E0,-1.4858782E0,-7.358516E-1,-4.6980476E-1,5.8968794E-1,-8.884787E-3,1.3296198E0,7.047693E-1,-9.92683E-1,1.168681E0,-5.8786094E-1,6.819612E-1,1.5004368E0,-5.3911167E-3,1.637774E0,-6.6161734E-1,1.2032181E0,2.2913275E-2,-7.5835687E-1,4.3694827E-1,-1.033339E0,4.8126507E-1,1.4405522E0,-1.2727791E0,6.7715175E-2,-7.1060774E-3,1.4808588E0,6.56237E-2,1.3964071E0,-5.5276364E-1,1.011501E0,-1.4693444E0,2.0959432E-1,-5.091233E-3,-2.4457442E-2,-2.6705645E-2,9.16621E-3,-1.1577694E-2,1.983853E-2,-5.5162655E-4,2.0693948E-2,-1.3926327E-2,1.3185459E-2,2.0165535E-2,-4.600964E-3,7.26439E-3,-2.0102452E-2,-1.0819115E-2,2.7751358E-2,2.1792626E-2,-8.748536E-5,-2.3843395E-2,3.962245E-4,-1.0063381E-2,-2.8197981E-2,-1.819793E-2,1.5320133E-2,-8.828712E-3,2.3083325E-2,-1.2618891E-2,-2.6786663E-2,6.8571693E-3,-2.6181603E-2,-3.9005089E-3,2.5281746E-2,-6.0070134E-3,2.5684293E-2,1.3227778E-2,-2.666587E-2,-1.2973187E-2,-2.9387599E-2,1.9255182E-2,2.9737817E-2,1.950279E-2,-1.2458319E-2,-2.146816E-3,1.9820686E-2,3.0751655E-2,1.7500584E-3,-1.1111957E-2,2.1356449E-2,2.1580866E-2,-1.8427862E-2,-2.7917493E-2,-1.6568142E-3,2.203246E-3,1.7401788E-2,-1.751898E-2,2.1464435E-2,7.888852E-3,2.8868701E-2,-1.1690098E-2,-2.826694E-2,9.597605E-3,-1.5758613E-2,1.616321E-2,-1.4029807E-2,1.4274309E-2,-2.0374432E-2,-6.8854066E-3,2.6754895E-2,-1.8479202E-2,2.5904926E-2,-2.5562834E-2,2.1501542E-4,2.9356143E-2,-8.702683E-3,-2.7311703E-2,6.17997E-3,1.9048109E-3,1.926276E-2,-5.1077653E-4,2.7091367E-2,2.9206265E-2,1.0966265E-2,7.476806E-3,-2.8735828E-2,-5.828828E-3,2.4600765E-2,-1.8339176E-2,6.948765E-3,2.7233573E-2,-5.843707E-3,5.0052335E-5,-2.607375E-2,-4.173043E-3,2.5969535E-2,2.7144523E-2,6.3639972E-3,-1.1133029E-3,-2.4447355E-2,-1.4077394E-2,2.2332959E-2,2.7253266E-2,-2.5808413E-3,-1.8640578E-2,5.3381594E-3,3.0031392E-2,1.1809967E-4,-2.0639518E-2,8.574722E-3,2.2104973E-2,-5.774182E-3,-2.9904073E-2,-6.6504437E-3,-1.0044513E-2,1.7270138E-2],"categories":[],"categories_nodes":[],"categories_segments":[],"categories_sizes":[],"default_left":[0,0,0,0,0,0,0,0,0,0,0,0,0,0,0,0,0,0,0,0,0,0,0,0,0,0,0,0,0,0,0,0,0,0,0,0,0,0,0,0,0,0,0,0,0,0,0,0,0,0,0,0,0,0,0,0,0,0,0,0,0,0,0,0,0,0,0,0,0,0,0,0,0,0,0,0,0,0,0,0,0,0,0,0,0,0,0,0,0,0,0,0,0,0,0,0,0,0,0,0,0,0,0,0,0,0,0,0,0,0,0,0,0,0,0,0,0,0,0,0,0,0,0,0,0,0,0,0,0,0,0,0,0,0,0,0,0,0,0,0,0,0,0,0,0,0,0,0,0,0,0,0,0,0,0,0,0,0,0,0,0,0,0,0,0,0,0,0,0,0,0,0,0,0,0,0,0,0,0,0,0,0,0,0,0,0,0,0,0,0,0,0,0,0,0,0,0,0,0,0,0,0,0,0,0,0,0,0,0,0,0,0,0,0,0,0,0,0,0,0,0,0,0,0,0,0,0,0,0,0,0,0,0,0,0,0,0,0,0,0,0,0,0,0,0,0,0,0,0,0,0,0,0,0,0,0,0,0,0,0,0,0,0,0,0,0,0,0,0,0,0,0,0,0,0,0,0,0,0,0,0,0,0],"id":3,"left_children":[1,3,5,7,9,11,13,15,17,19,21,23,25,-1,27,29,31,33,35,37,39,41,43,45,47,49,51,-1,-1,53,-1,55,57,59,61,63,65,67,69,71,73,75,77,79,81,83,85,87,89,-1,91,93,95,97,99,101,103,-1,-1,105,107,109,111,113,115,117,119,121,123,-1,-1,-1,125,127,129,-1,131,133,135,137,139,141,143,-1,145,147,149,151,153,155,157,159,-1,161,163,165,167,-1,169,171,173,-1,175,177,179,181,183,185,187,-1,-1,189,191,193,195,-1,-1,197,199,-1,-1,201,203,205,-1,207,209,211,-1,213,-1,215,217,219,221,223,225,227,229,231,233,-1,235,237,239,241,243,245,247,-1,249,251,253,-1,255,257,259,261,263,265,267,-1,269,271,273,275,277,279,281,-1,-1,-1,-1,-1,-1,-1,-1,-1,-1,-1,-1,-1,-1,-1,-1,-1,-1,-1,-1,-1,-1,-1,-1,-1,-1,-1,-1,-1,-1,-1,-1,-1,-1,-1,-1,-1,-1,-1,-1,-1,-1,-1,-1,-1,-1,-1,-1,-1,-1,-1,-1,-1,-1,-1,-1,-1,-1,-1,-1,-1,-1,-1,-1,-1,-1,-1,-1,-1,-1,-1,-1,-1,-1,-1,-1,-1,-1,-1,-1,-1,-1,-1,-1,-1,-1,-1,-1,-1,-1,-1,-1,-1,-1,-1,-1,-1,-1,-1,-1,-1,-1,-1,-1,-1,-1,-1,-1,-1,-1,-1,-1,-1,-1],"loss_changes":[1.2019532E3,8.989957E2,4.637099E2,3.1084814E2,3.1943445E2,1.7840186E2,9.162582E0,1.7497409E2,2.0515674E2,1.1453992E2,1.8301035E2,8.631128E1,7.920946E1,0E0,4.5446167E0,3.5235497E1,5.7750435E1,1.0464685E2,9.407332E1,3.866338E1,3.5668457E1,6.308809E1,1.101724E2,7.105139E1,5.2070374E1,2.2605972E1,5.426168E1,0E0,0E0,2.897676E1,0E0,4.369065E1,1.1082546E1,6.1905884E1,2.3882935E1,5.0107346E1,1.8820107E1,4.0765175E1,1.6662102E1,1.4810974E1,2.323579E1,2.5947144E1,4.4636917E1,7.372337E1,2.2225393E1,3.147597E1,3.443982E1,5.794895E1,4.514673E1,0E0,1.6342983E1,4.351452E1,3.3022945E1,2.4753586E1,1.9419498E1,2.559906E1,2.8908546E1,0E0,0E0,4.7977753E1,2.2600143E1,9.507068E0,2.1084229E1,4.9356163E1,5.4489765E0,1.767221E1,5.824539E0,3.2994736E1,1.4201504E1,0E0,0E0,0E0,1.2389954E1,2.0655846E1,1.3990658E1,0E0,2.2092821E1,3.1534725E1,1.4786957E1,2.895671E1,4.006449E1,2.03288E1,2.369203E1,0E0,1.6921444E1,3.703012E1,1.7067932E1,2.8925968E1,1.7424614E1,1.5203448E1,2.064682E1,1.2757664E1,0E0,1.4861298E1,2.2864935E1,2.6841864E1,1.4096544E1,0E0,9.732162E0,2.0943369E1,1.285538E1,0E0,2.0080215E1,2.48947E1,1.618352E1,3.990619E1,1.7359005E1,1.6349133E1,6.750738E0,0E0,0E0,1.7516113E1,1.6559856E1,2.4365044E1,2.0085892E1,0E0,0E0,1.56623125E1,1.441839E1,0E0,0E0,1.2957554E1,2.0818434E1,4.672283E0,0E0,6.904419E0,7.6741056E0,1.40872345E1,0E0,7.7017136E0,0E0,1.4766556E1,1.8519901E1,5.560157E0,3.2218678E1,1.1069032E1,9.948334E0,8.473618E0,2.7872963E1,6.1348656E1,2.036293E1,0E0,1.4574112E1,2.8001987E1,6.7245216E0,1.2562569E1,9.034988E0,2.6249046E1,8.57019E0,0E0,1.0786499E1,1.19314995E1,1.4383354E1,0E0,1.7247805E1,1.6130268E1,5.4471264E0,2.2302593E1,1.3187454E1,6.716606E0,1.0812431E1,0E0,9.528046E0,1.8203796E1,7.139673E0,1.3349659E1,8.901148E0,4.7479553E0,4.9998384E0,0E0,0E0,0E0,0E0,0E0,0E0,0E0,0E0,0E0,0E0,0E0,0E0,0E0,0E0,0E0,0E0,0E0,0E0,0E0,0E0,0E0,0E0,0E0,0E0,0E0,0E0,0E0,0E0,0E0,0E0,0E0,0E0,0E0,0E0,0E0,0E0,0E0,0E0,0E0,0E0,0E0,0E0,0E0,0E0,0E0,0E0,0E0,0E0,0E0,0E0,0E0,0E0,0E0,0E0,0E0,0E0,0E0,0E0,0E0,0E0,0E0,0E0,0E0,0E0,0E0,0E0,0E0,0E0,0E0,0E0,0E0,0E0,0E0,0E0,0E0,0E0,0E0,0E0,0E0,0E0,0E0,0E0,0E0,0E0,0E0,0E0,0E0,0E0,0E0,0E0,0E0,0E0,0E0,0E0,0E0,0E0,0E0,0E0,0E0,0E0,0E0,0E0,0E0,0E0,0E0,0E0,0E0,0E0,0E0,0E0,0E0,0E0,0E0,0E0],"parents":[2147483647,0,0,1,1,2,2,3,3,4,4,5,5,6,6,7,7,8,8,9,9,10,10,11,11,12,12,14,14,15,15,16,16,17,17,18,18,19,19,20,20,21,21,22,22,23,23,24,24,25,25,26,26,29,29,31,31,32,32,33,33,34,34,35,35,36,36,37,37,38,38,39,39,40,40,41,41,42,42,43,43,44,44,45,45,46,46,47,47,48,48,50,50,51,51,52,52,53,53,54,54,55,55,56,56,59,59,60,60,61,61,62,62,63,63,64,64,65,65,66,66,67,67,68,68,72,72,73,73,74,74,76,76,77,77,78,78,79,79,80,80,81,81,82,82,84,84,85,85,86,86,87,87,88,88,89,89,90,90,91,91,93,93,94,94,95,95,96,96,98,98,99,99,100,100,102,102,103,103,104,104,105,105,106,106,107,107,108,108,111,111,112,112,113,113,114,114,117,117,118,118,121,121,122,122,123,123,125,125,126,126,127,127,129,129,131,131,132,132,133,133,134,134,135,135,136,136,137,137,138,138,139,139,140,140,142,142,143,143,144,144,145,145,146,146,147,147,148,148,150,150,151,151,152,152,154,154,155,155,156,156,157,157,158,158,159,159,160,160,162,162,163,163,164,164,165,165,166,166,167,167,168,168],"right_children":[2,4,6,8,10,12,14,16,18,20,22,24,26,-1,28,30,32,34,36,38,40,42,44,46,48,50,52,-1,-1,54,-1,56,58,60,62,64,66,68,70,72,74,76,78,80,82,84,86,88,90,-1,92,94,96,98,100,102,104,-1,-1,106,108,110,112,114,116,118,120,122,124,-1,-1,-1,126,128,130,-1,132,134,136,138,140,142,144,-1,146,148,150,152,154,156,158,160,-1,162,164,166,168,-1,170,172,174,-1,176,178,180,182,184,186,188,-1,-1,190,192,194,196,-1,-1,198,200,-1,-1,202,204,206,-1,208,210,212,-1,214,-1,216,218,220,222,224,226,228,230,232,234,-1,236,238,240,242,244,246,248,-1,250,252,254,-1,256,258,260,262,264,266,268,-1,270,272,274,276,278,280,282,-1,-1,-1,-1,-1,-1,-1,-1,-1,-1,-1,-1,-1,-1,-1,-1,-1,-1,-1,-1,-1,-1,-1,-1,-1,-1,-1,-1,-1,-1,-1,-1,-1,-1,-1,-1,-1,-1,-1,-1,-1,-1,-1,-1,-1,-1,-1,-1,-1,-1,-1,-1,-1,-1,-1,-1,-1,-1,-1,-1,-1,-1,-1,-1,-1,-1,-1,-1,-1,-1,-1,-1,-1,-1,-1,-1,-1,-1,-1,-1,-1,-1,-1,-1,-1,-1,-1,-1,-1,-1,-1,-1,-1,-1,-1,-1,-1,-1,-1,-1,-1,-1,-1,-1,-1,-1,-1,-1,-1,-1,-1,-1,-1,-1],"split_conditions":[-4E-1,2.18E1,4.4E-1,7.2E0,7.268E0,1.104E2,1.92E1,3.248E0,2.3E1,3.158E0,1.069E2,9.95E1,2.7E1,-1.3326204E-3,3.8E1,8.605E1,1.116E2,1.085E2,2E-2,-2.017E1,9.98E1,1.48E1,1.35E2,7.262E0,1.74E1,1.44E0,9.93E1,-7.660934E-3,-3.2856286E-2,-2.217E1,2.440372E-2,9.89E1,1.21E2,1.36E2,-2.8423E2,9.5E1,8.4E1,9.81E1,2.58E0,1.584E2,5.344E0,-6.277E2,1.2E0,1.82E1,4.34E0,1.86E1,1.14E2,3.46E0,3.642E1,2.3602894E-2,1.2E0,3.28E1,1.125E2,9.29E1,2.088E0,1.02E1,9.16E1,-3.0325543E-2,2.4408355E-4,4.4E0,8.64E0,1.382E1,1.25E0,-1.6408E2,1.21E2,5.526E0,1.21E2,-5.554E1,1.125E2,2.7850613E-2,-1.1156019E-2,-8.975362E-3,5.14E0,3.48E0,4.76E0,2.6752708E-2,-2.58E0,7.282E0,7.42E0,2.58E1,7.392E0,1.45E1,9.86E1,-3.0359069E-2,7.44E-1,1.95E1,3.2E0,1.03E2,4.3E1,2.46E2,1.046E2,1.32E0,9.502812E-3,1.75E0,1.526E0,7.65E1,2.604E2,1.3168488E-2,4.7E-1,9.8E1,4.628E1,-2.3808569E-2,1.004E2,1.742E2,3.54E1,4E1,2.99E1,-8.532E1,1.72E1,2.2926217E-2,-1.1919271E-2,4.161E1,9.4E1,2.48E2,9.698E1,3.146321E-5,2.4680346E-2,3.765E1,1.54E1,1.8034548E-3,2.7211564E-2,1.96E-1,1E0,1E0,1.3053599E-2,1.196E0,5.931E1,2.62E1,-2.3275128E-2,7.078E0,-3.2309224E-3,7.348E0,5.3E1,7.567E1,3.04E1,2.698E2,2.67E1,3.294E1,5.124E1,-1.6408E2,3.212E2,-8.884787E-3,2.6E0,1.268E0,1.94E0,2.225E2,2.136E2,1.84E1,3.611E1,-5.3911167E-3,6.246E0,1.368E2,8.38E1,2.2913275E-2,2.06E1,7.64E0,6.02E1,4.096E1,1.6018E3,1.14E0,3.691E1,-7.1060774E-3,1.19E2,7.316E0,6.234E1,1.024E0,8.7E0,2.26E1,8.85E1,-5.091233E-3,-2.4457442E-2,-2.6705645E-2,9.16621E-3,-1.1577694E-2,1.983853E-2,-5.5162655E-4,2.0693948E-2,-1.3926327E-2,1.3185459E-2,2.0165535E-2,-4.600964E-3,7.26439E-3,-2.0102452E-2,-1.0819115E-2,2.7751358E-2,2.1792626E-2,-8.748536E-5,-2.3843395E-2,3.962245E-4,-1.0063381E-2,-2.8197981E-2,-1.819793E-2,1.5320133E-2,-8.828712E-3,2.3083325E-2,-1.2618891E-2,-2.6786663E-2,6.8571693E-3,-2.6181603E-2,-3.9005089E-3,2.5281746E-2,-6.0070134E-3,2.5684293E-2,1.3227778E-2,-2.666587E-2,-1.2973187E-2,-2.9387599E-2,1.9255182E-2,2.9737817E-2,1.950279E-2,-1.2458319E-2,-2.146816E-3,1.9820686E-2,3.0751655E-2,1.7500584E-3,-1.1111957E-2,2.1356449E-2,2.1580866E-2,-1.8427862E-2,-2.7917493E-2,-1.6568142E-3,2.203246E-3,1.7401788E-2,-1.751898E-2,2.1464435E-2,7.888852E-3,2.8868701E-2,-1.1690098E-2,-2.826694E-2,9.597605E-3,-1.5758613E-2,1.616321E-2,-1.4029807E-2,1.4274309E-2,-2.0374432E-2,-6.8854066E-3,2.6754895E-2,-1.8479202E-2,2.5904926E-2,-2.5562834E-2,2.1501542E-4,2.9356143E-2,-8.702683E-3,-2.7311703E-2,6.17997E-3,1.9048109E-3,1.926276E-2,-5.1077653E-4,2.7091367E-2,2.9206265E-2,1.0966265E-2,7.476806E-3,-2.8735828E-2,-5.828828E-3,2.4600765E-2,-1.8339176E-2,6.948765E-3,2.7233573E-2,-5.843707E-3,5.0052335E-5,-2.607375E-2,-4.173043E-3,2.5969535E-2,2.7144523E-2,6.3639972E-3,-1.1133029E-3,-2.4447355E-2,-1.4077394E-2,2.2332959E-2,2.7253266E-2,-2.5808413E-3,-1.8640578E-2,5.3381594E-3,3.0031392E-2,1.1809967E-4,-2.0639518E-2,8.574722E-3,2.2104973E-2,-5.774182E-3,-2.9904073E-2,-6.6504437E-3,-1.0044513E-2,1.7270138E-2],"split_indices":[34,15,34,17,17,18,9,17,6,17,18,1,7,0,32,32,18,18,8,34,1,6,3,11,15,26,1,0,0,34,0,1,3,3,34,4,4,1,20,30,17,34,8,6,25,9,3,20,2,0,8,7,18,1,17,15,0,0,0,8,17,29,8,34,31,26,3,34,0,0,0,0,24,19,25,0,8,11,29,15,11,6,1,0,10,6,25,3,16,14,3,19,0,23,19,4,30,0,20,0,32,0,31,31,7,32,7,34,6,0,0,32,4,30,13,0,0,2,15,0,0,26,33,33,0,19,32,15,0,17,0,11,4,4,15,30,7,28,32,34,30,0,26,19,19,21,30,15,2,0,22,21,13,0,6,17,5,28,14,22,2,0,0,11,32,19,17,15,16,0,0,0,0,0,0,0,0,0,0,0,0,0,0,0,0,0,0,0,0,0,0,0,0,0,0,0,0,0,0,0,0,0,0,0,0,0,0,0,0,0,0,0,0,0,0,0,0,0,0,0,0,0,0,0,0,0,0,0,0,0,0,0,0,0,0,0,0,0,0,0,0,0,0,0,0,0,0,0,0,0,0,0,0,0,0,0,0,0,0,0,0,0,0,0,0,0,0,0,0,0,0,0,0,0,0,0,0,0,0,0,0,0,0],"split_type":[0,0,0,0,0,0,0,0,0,0,0,0,0,0,0,0,0,0,0,0,0,0,0,0,0,0,0,0,0,0,0,0,0,0,0,0,0,0,0,0,0,0,0,0,0,0,0,0,0,0,0,0,0,0,0,0,0,0,0,0,0,0,0,0,0,0,0,0,0,0,0,0,0,0,0,0,0,0,0,0,0,0,0,0,0,0,0,0,0,0,0,0,0,0,0,0,0,0,0,0,0,0,0,0,0,0,0,0,0,0,0,0,0,0,0,0,0,0,0,0,0,0,0,0,0,0,0,0,0,0,0,0,0,0,0,0,0,0,0,0,0,0,0,0,0,0,0,0,0,0,0,0,0,0,0,0,0,0,0,0,0,0,0,0,0,0,0,0,0,0,0,0,0,0,0,0,0,0,0,0,0,0,0,0,0,0,0,0,0,0,0,0,0,0,0,0,0,0,0,0,0,0,0,0,0,0,0,0,0,0,0,0,0,0,0,0,0,0,0,0,0,0,0,0,0,0,0,0,0,0,0,0,0,0,0,0,0,0,0,0,0,0,0,0,0,0,0,0,0,0,0,0,0,0,0,0,0,0,0,0,0,0,0,0,0,0,0,0,0,0,0,0,0,0,0,0,0,0,0,0,0,0,0],"sum_hessian":[4.2249497E3,2.9436687E3,1.2812811E3,1.7493169E3,1.1943518E3,1.2139048E3,6.7376396E1,4.0293405E2,1.3463828E3,3.9195773E2,8.023941E2,9.23003E2,2.9090173E2,3.2648168E0,6.411158E1,1.5809476E2,2.4483931E2,1.0857823E3,2.6060046E2,9.1721085E1,3.0023666E2,3.2741302E2,4.7498108E2,6.443573E2,2.786457E2,6.3427986E1,2.2747375E2,3.007338E0,6.1104244E1,1.5228993E2,5.80482E0,2.278184E2,1.7020905E1,4.5933984E2,6.264425E2,1.9511966E2,6.5480804E1,7.0288445E1,2.1432644E1,2.2495386E2,7.528279E1,6.75366E1,2.598764E2,3.96937E2,7.8044075E1,2.9131033E1,6.152263E2,1.0633512E2,1.7231058E2,4.0371137E0,5.9390873E1,1.5866531E2,6.880845E1,1.1513334E2,3.7156597E1,1.3808257E2,8.973584E1,1.1995757E1,5.025148E0,3.9824548E2,6.109436E1,7.7949524E0,6.186476E2,1.7999023E2,1.5129415E1,3.773219E1,2.7748617E1,3.899055E1,3.129789E1,1.7924103E1,3.5085416E0,3.0086012E0,2.2194525E2,4.0731434E1,3.455136E1,5.810487E0,6.1726112E1,1.816809E2,7.8195526E1,2.1861443E2,1.7832257E2,4.6378605E1,3.1665466E1,7.9937267E0,2.1137306E1,2.267951E2,3.8843118E2,5.340259E1,5.2932533E1,2.7630888E1,1.4467969E2,5.284527E1,6.5456057E0,7.841706E1,8.0248245E1,4.2766E1,2.6042452E1,5.5434E0,1.09589935E2,2.0296556E1,1.686004E1,3.7516947E0,1.3433087E2,5.2464577E1,3.7271263E1,3.8464145E2,1.3604036E1,4.555488E1,1.5539481E1,3.283509E0,4.5114436E0,5.7207874E2,4.656887E1,2.7679241E1,1.5231099E2,3.518892E0,1.1610523E1,1.606223E1,2.166996E1,3.2682595E0,2.4480358E1,2.3444832E1,1.5545721E1,2.82735E1,3.0243895E0,2.1465558E2,7.289679E0,3.447635E1,6.2550864E0,2.9528328E1,5.023031E0,1.5856569E1,4.586954E1,1.076756E1,1.7091333E2,7.0364914E0,7.1159035E1,8.976712E1,1.288473E2,1.3024379E2,4.807877E1,6.523224E0,3.985538E1,1.8386513E1,1.32789545E1,1.28603325E1,8.276973E0,1.089949E2,1.178002E2,4.2673497E0,3.8416385E2,9.530166E0,4.3872425E1,3.534732E0,4.93978E1,1.7108936E1,1.0521952E1,2.9440008E1,1.1523968E2,4.4550674E1,8.294592E0,4.016309E0,7.440076E1,6.5109695E1,1.5138555E1,1.856836E1,2.419764E1,1.9755426E1,6.287025E0,9.285354E0,1.0030458E2,1.324838E1,7.0481772E0,5.012886E0,1.1847155E1,1.5327532E1,1.1900334E2,3.9368134E1,1.309644E1,2.6222834E1,1.1048429E1,1.6611534E1,3.680299E2,5.013887E0,8.590149E0,1.48875475E1,3.0667332E1,1.0511484E1,5.0279975E0,1.829387E1,5.5378485E2,4.228276E1,4.286109E0,1.30482855E1,1.4630957E1,1.0779855E2,4.451244E1,9.058437E0,7.0037923E0,7.533789E0,1.4136171E1,4.518374E0,1.8926456E1,5.5408864E0,1.0004835E1,1.1279572E1,1.6993927E1,2.998165E1,1.8467393E2,3.7824624E0,3.5072167E0,1.7082027E1,1.7394321E1,2.625999E1,3.2683382E0,6.5202084E0,9.336361E0,3.030699E0,4.2838844E1,6.9992514E0,3.7683086E0,8.296549E1,8.794784E1,4.006572E0,3.0299194E0,8.806822E0,6.2352215E1,1.3035238E1,7.673189E1,1.4344942E1,1.14502365E2,2.4695206E1,1.0554859E2,4.3071877E1,5.0068946E0,4.0163665E0,3.5839016E1,5.5089884E0,1.2877523E1,8.754701E0,4.5242543E0,9.849743E0,3.0105898E0,3.7472618E0,4.5297112E0,4.651347E1,6.2481434E1,3.516702E0,1.142835E2,3.723342E2,1.182965E1,4.781133E0,4.749033E0,5.020597E0,3.8851826E1,3.9584854E1,9.812946E0,6.5642204E0,1.0544715E1,3.5184765E0,7.003475E0,1.75781E1,1.1861908E1,1.04176765E2,1.1062912E1,4.270607E0,4.0280067E1,5.0117316E0,3.2828603E0,7.1135895E1,3.2648597E0,1.0772313E1,5.433738E1,1.2122639E1,3.0159163E0,1.151954E1,7.0488186E0,2.0432137E1,3.7655027E0,1.5739882E1,4.0155435E0,3.2606223E0,3.0264025E0],"tree_param":{"num_deleted":"0","num_feature":"35","num_nodes":"283","size_leaf_vector":"0"}},{"base_weights":[2.830554E-3,-3.4368637E-1,8.008771E-1,-7.9097235E-1,3.0927387E-1,9.3784994E-1,-1.6888567E0,-2.036328E-2,-1.0289304E0,1.0245675E0,-4.3123525E-2,3.9130772E-4,1.0861524E0,1.5236526E-3,-1.7740167E0,-8.4001917E-1,4.8015574E-1,-1.2186828E0,-2.4679416E-1,9.590496E-2,1.305009E0,-3.4252286E-1,6.7410326E-1,1.2721839E0,-2.3076998E-1,6.2592703E-1,1.324199E0,-3.4325118E-3,-3.2372158E-2,-9.891245E-1,7.07388E-1,8.0637795E-1,-2.3795512E-1,-8.266117E-1,-1.5030313E0,-4.4576246E-1,1.3304204E0,-1.2917721E-1,3.0762428E-2,1.6457287E0,9.4801205E-1,-7.0254576E-1,1.7972909E-1,8.669607E-2,1.1955051E0,2.9626738E-2,-1.8913371E-2,-4.9713507E-1,6.509983E-1,2.5591105E-1,1.2880979E0,2.5727156E-1,1.4204842E0,-7.973834E-2,-1.1657447E0,1.2068174E0,-1.1357615E-2,-5.215498E-1,9.633817E-1,1.1695347E0,-5.5980414E-1,-9.082473E-1,9.916307E-1,-1.5420659E0,-4.5118E-1,-7.331661E-1,5.0433743E-1,-1.6821875E-3,2.7591206E-2,5.133088E-1,-8.109158E-1,2.9517457E-2,-2.7313433E-3,6.4419484E-1,1.5401592E0,-1.5360528E-1,-9.4916046E-1,5.08004E-1,-4.4186395E-1,-3.4487295E-1,7.127264E-1,8.3351564E-1,2.8670281E-2,-7.5472176E-1,5.345727E-1,1.1455367E0,-4.8401672E-1,-9.408091E-2,8.1732714E-1,1.4203453E0,-3.6227822E-1,4.5274043E-1,-2.384437E-2,-1.8838248E-1,1.4663109E0,2.1272082E-2,-7.960021E-1,2.7174806E-2,-1.2603762E0,-5.5185243E-5,2.9310573E-2,-1.1440247E0,1.3896005E-2,1.2352012E0,4.537692E-1,2.5631038E-2,-4.8872014E-4,-3.0013008E-2,-8.749513E-2,-1.1385751E0,-3.6246184E-1,-1.2029008E-2,2.4947615E-2,-1.6011494E0,-9.165035E-1,-1.0417615E0,4.4610065E-1,4.6665546E-1,-9.921824E-1,-1.1838458E-1,1.0009463E0,1.037353E0,-4.5468718E-1,-1.0754218E0,1.1443744E-2,8.717292E-1,-6.6095865E-1,-5.4179262E-3,3.0095011E-2,3.3419308E-1,-8.1459093E-1,-1.108013E0,1.0505403E-1,1.3864582E0,1.9406669E-1,-3.229937E-2,-1.0934391E0,4.4187936E-3,-2.4017379E-2,1.2165079E0,-5.874125E-1,1.1591786E0,-1.5628343E-2,-1.5302588E-1,-1.1786133E0,-2.2746553E-1,1.202184E0,-4.6059788E-5,2.4222706E-2,1.4570037E-2,-2.0477759E-2,7.205474E-1,-3.908818E-1,9.532081E-1,-1.25968745E-2,2.9714994E-2,7.572816E-1,-2.162545E-2,1.578443E-2,9.395673E-1,-1.3831897E-1,-2.8430149E-2,5.11249E-1,2.9484887E-2,1.2110778E0,-2.2353368E-2,3.2354778E-4,-1.5417176E-2,1.8544633E-2,-2.3042038E-2,9.6158E-3,-1.6361183E-3,-2.5726847E-2,-8.592939E-3,2.302456E-2,1.0312777E-3,2.1956865E-2,-2.1552281E-2,6.886671E-3,-1.2129343E-3,-2.1969901E-2,-7.971983E-3,2.6824178E-2,-2.8528618E-2,-1.1043854E-2,-2.3430008E-2,1.2188765E-3,-2.4709743E-2,4.814863E-3,2.1984676E-2,-1.4540115E-2,-2.3261344E-2,1.5098919E-2,-2.1125438E-2,-2.358073E-3,-2.302708E-2,9.08254E-3,-7.977351E-3,2.2561582E-2,2.5564669E-2,-1.0412817E-2,-2.2997942E-2,1.1535482E-2,-2.2268998E-2,1.2790824E-2,1.2090447E-4,2.13E-2,1.0378728E-2,-2.7623571E-2,-2.3623206E-2,1.1066228E-2,-1.9000506E-2,1.1680747E-2,5.1488574E-3,-2.103214E-2,-5.9556905E-3,2.3073394E-2,2.6656015E-2,-1.8490006E-3,1.4847861E-2,-4.33713E-3,8.240283E-3,-2.0027816E-2,-2.414908E-2,4.4349856E-3,7.2666844E-3,-1.4683101E-2,-1.5965275E-2,2.6536718E-2,-2.0250255E-2,5.485741E-3,2.4354154E-2,7.267746E-3,-1.7876511E-2,1.2972411E-2,-1.960543E-2,6.1025806E-3,2.45938E-3,-2.498331E-2,-1.7220384E-2,9.3054315E-3,2.7905699E-2,1.9431663E-3,-1.647512E-2,1.8235657E-2,8.764375E-4,-1.6892638E-2,2.075881E-2,-1.2607939E-3,-6.602056E-4,2.6419241E-2,2.5180351E-2,4.6990337E-3,-1.0798418E-2,2.1104626E-2,2.0250488E-2,-1.1679769E-2,1.4667602E-2,2.5533713E-2],"categories":[],"categories_nodes":[],"categories_segments":[],"categories_sizes":[],"default_left":[0,0,0,0,0,0,0,0,0,0,0,0,0,0,0,0,0,0,0,0,0,0,0,0,0,0,0,0,0,0,0,0,0,0,0,0,0,0,0,0,0,0,0,0,0,0,0,0,0,0,0,0,0,0,0,0,0,0,0,0,0,0,0,0,0,0,0,0,0,0,0,0,0,0,0,0,0,0,0,0,0,0,0,0,0,0,0,0,0,0,0,0,0,0,0,0,0,0,0,0,0,0,0,0,0,0,0,0,0,0,0,0,0,0,0,0,0,0,0,0,0,0,0,0,0,0,0,0,0,0,0,0,0,0,0,0,0,0,0,0,0,0,0,0,0,0,0,0,0,0,0,0,0,0,0,0,0,0,0,0,0,0,0,0,0,0,0,0,0,0,0,0,0,0,0,0,0,0,0,0,0,0,0,0,0,0,0,0,0,0,0,0,0,0,0,0,0,0,0,0,0,0,0,0,0,0,0,0,0,0,0,0,0,0,0,0,0,0,0,0,0,0,0,0,0,0,0,0,0,0,0,0,0,0,0,0,0,0,0,0,0,0,0,0,0,0,0,0,0,0,0,0,0,0,0,0,0,0,0],"id":4,"left_children":[1,3,5,7,9,11,13,15,17,19,21,23,25,-1,27,29,31,33,35,37,39,41,43,45,47,49,51,-1,-1,53,55,57,59,61,63,65,67,69,-1,71,73,75,77,79,81,-1,-1,83,85,87,89,91,93,95,97,99,-1,101,103,105,107,109,111,113,115,117,119,-1,-1,121,123,-1,-1,125,127,129,131,133,135,137,139,141,-1,143,145,147,149,151,153,155,157,159,-1,161,163,-1,165,167,169,-1,-1,171,-1,173,175,-1,-1,-1,177,179,181,-1,-1,183,185,187,189,191,193,195,197,199,201,203,-1,205,207,-1,-1,209,211,213,215,217,219,221,223,225,-1,227,229,231,233,235,237,239,241,-1,-1,-1,-1,243,245,247,-1,-1,249,-1,-1,251,253,-1,255,-1,257,-1,-1,-1,-1,-1,-1,-1,-1,-1,-1,-1,-1,-1,-1,-1,-1,-1,-1,-1,-1,-1,-1,-1,-1,-1,-1,-1,-1,-1,-1,-1,-1,-1,-1,-1,-1,-1,-1,-1,-1,-1,-1,-1,-1,-1,-1,-1,-1,-1,-1,-1,-1,-1,-1,-1,-1,-1,-1,-1,-1,-1,-1,-1,-1,-1,-1,-1,-1,-1,-1,-1,-1,-1,-1,-1,-1,-1,-1,-1,-1,-1,-1,-1,-1,-1,-1,-1,-1,-1,-1,-1,-1,-1,-1],"loss_changes":[1.1633252E3,8.56907E2,4.3591412E2,3.19235E2,3.0079843E2,1.679209E2,1.025235E1,1.693422E2,1.9712207E2,1.0244638E2,1.7208578E2,4.908869E1,1.134209E2,0E0,7.178665E0,3.6805313E1,6.0234833E1,1.1807556E2,8.2489395E1,3.4785E1,3.522467E1,1.0641072E2,7.218605E1,2.720042E1,3.350979E1,8.72415E1,7.015198E1,0E0,0E0,2.2899216E1,1.0492577E1,3.729458E1,3.727294E1,6.801196E1,2.4724854E1,6.385257E1,1.0476276E1,3.647765E1,0E0,1.1369324E1,2.6000671E1,4.517987E1,4.745537E1,3.0523617E1,1.8630005E1,0E0,0E0,2.9392284E1,1.9197243E1,4.537526E1,2.8424683E1,1.8986473E1,4.6681152E1,2.3552258E1,1.3557709E1,6.127057E0,0E0,1.6714771E1,2.1348633E1,5.4586697E0,3.6090675E1,5.4047943E1,1.5457008E1,2.0581787E1,1.2953621E1,5.6060028E1,1.699912E1,0E0,0E0,2.2283312E1,1.6326942E1,0E0,0E0,3.0534538E1,1.7115044E1,3.4121162E1,3.8772232E1,4.1631424E1,2.1454746E1,2.404198E1,3.0881151E1,1.9579365E1,0E0,2.2188564E1,1.1658475E1,6.4054832E0,1.0703182E1,3.4833412E1,1.9194252E1,2.0485245E1,1.2458017E1,1.5247938E1,0E0,1.9225777E1,3.1977661E1,0E0,6.399577E0,1.0098013E1,1.1910736E1,0E0,0E0,4.482565E0,0E0,1.47845E1,1.7811964E1,0E0,0E0,0E0,2.699826E1,3.772812E1,2.3575996E1,0E0,0E0,1.3899414E1,2.247572E1,7.450346E0,1.1434418E1,2.419505E1,2.6949097E1,1.9831549E1,1.3356556E1,2.0328117E1,1.5973698E1,1.3186485E1,0E0,2.5739334E1,1.8803074E1,0E0,0E0,3.149762E1,1.8717243E1,2.6594833E1,1.7263227E1,8.246582E0,3.2885742E1,2.8759752E1,1.230341E1,1.8003088E1,0E0,2.2725471E1,7.3026414E0,8.244568E0,1.6422422E1,1.8524935E1,1.7006401E1,7.002079E0,4.989258E0,0E0,0E0,0E0,0E0,2.1521454E1,2.6720755E1,1.9594307E1,0E0,0E0,2.2010496E1,0E0,0E0,9.298899E0,1.655956E1,0E0,1.0715276E1,0E0,2.5122772E1,0E0,0E0,0E0,0E0,0E0,0E0,0E0,0E0,0E0,0E0,0E0,0E0,0E0,0E0,0E0,0E0,0E0,0E0,0E0,0E0,0E0,0E0,0E0,0E0,0E0,0E0,0E0,0E0,0E0,0E0,0E0,0E0,0E0,0E0,0E0,0E0,0E0,0E0,0E0,0E0,0E0,0E0,0E0,0E0,0E0,0E0,0E0,0E0,0E0,0E0,0E0,0E0,0E0,0E0,0E0,0E0,0E0,0E0,0E0,0E0,0E0,0E0,0E0,0E0,0E0,0E0,0E0,0E0,0E0,0E0,0E0,0E0,0E0,0E0,0E0,0E0,0E0,0E0,0E0,0E0,0E0,0E0,0E0,0E0,0E0,0E0,0E0,0E0,0E0,0E0,0E0,0E0,0E0,0E0],"parents":[2147483647,0,0,1,1,2,2,3,3,4,4,5,5,6,6,7,7,8,8,9,9,10,10,11,11,12,12,14,14,15,15,16,16,17,17,18,18,19,19,20,20,21,21,22,22,23,23,24,24,25,25,26,26,29,29,30,30,31,31,32,32,33,33,34,34,35,35,36,36,37,37,39,39,40,40,41,41,42,42,43,43,44,44,47,47,48,48,49,49,50,50,51,51,52,52,53,53,54,54,55,55,57,57,58,58,59,59,60,60,61,61,62,62,63,63,64,64,65,65,66,66,69,69,70,70,73,73,74,74,75,75,76,76,77,77,78,78,79,79,80,80,81,81,83,83,84,84,85,85,86,86,87,87,88,88,89,89,90,90,91,91,93,93,94,94,96,96,97,97,98,98,101,101,103,103,104,104,108,108,109,109,110,110,113,113,114,114,115,115,116,116,117,117,118,118,119,119,120,120,121,121,122,122,123,123,125,125,126,126,129,129,130,130,131,131,132,132,133,133,134,134,135,135,136,136,137,137,139,139,140,140,141,141,142,142,143,143,144,144,145,145,146,146,151,151,152,152,153,153,156,156,159,159,160,160,162,162,164,164],"right_children":[2,4,6,8,10,12,14,16,18,20,22,24,26,-1,28,30,32,34,36,38,40,42,44,46,48,50,52,-1,-1,54,56,58,60,62,64,66,68,70,-1,72,74,76,78,80,82,-1,-1,84,86,88,90,92,94,96,98,100,-1,102,104,106,108,110,112,114,116,118,120,-1,-1,122,124,-1,-1,126,128,130,132,134,136,138,140,142,-1,144,146,148,150,152,154,156,158,160,-1,162,164,-1,166,168,170,-1,-1,172,-1,174,176,-1,-1,-1,178,180,182,-1,-1,184,186,188,190,192,194,196,198,200,202,204,-1,206,208,-1,-1,210,212,214,216,218,220,222,224,226,-1,228,230,232,234,236,238,240,242,-1,-1,-1,-1,244,246,248,-1,-1,250,-1,-1,252,254,-1,256,-1,258,-1,-1,-1,-1,-1,-1,-1,-1,-1,-1,-1,-1,-1,-1,-1,-1,-1,-1,-1,-1,-1,-1,-1,-1,-1,-1,-1,-1,-1,-1,-1,-1,-1,-1,-1,-1,-1,-1,-1,-1,-1,-1,-1,-1,-1,-1,-1,-1,-1,-1,-1,-1,-1,-1,-1,-1,-1,-1,-1,-1,-1,-1,-1,-1,-1,-1,-1,-1,-1,-1,-1,-1,-1,-1,-1,-1,-1,-1,-1,-1,-1,-1,-1,-1,-1,-1,-1,-1,-1,-1,-1,-1,-1,-1],"split_conditions":[-4E-1,2.18E1,4.4E-1,7.268E0,7.268E0,2.57E1,9.31E1,3.248E0,2.3E1,3.158E0,2.2E1,5.928E0,1.74E1,1.5236526E-3,7.3E0,-6.35E0,4.3E0,1.085E2,9.4E1,-7.49E0,9.71E1,3.04E1,7.374E0,4.82E0,2.52E1,1.3E2,3.63E1,-3.4325118E-3,-3.2372158E-2,9.56E1,3.198E1,1.88E0,4.538E1,4.2E0,1.46E2,2E-2,1.202E2,9.72E1,3.0762428E-2,1.6018E3,-1.05E1,1.067E2,4.38E0,3.16E1,1.26E2,2.9626738E-2,-1.8913371E-2,1.62E0,9.91E1,2.382E1,5.26E0,7.56E0,7.256E0,3.687E1,4.74E1,1.36E2,-1.1357615E-2,7.42E1,9.9E1,1.8E2,1.996E2,1.23E2,2.79E1,2.254E2,2.334E1,-1.4266E2,7.412E0,-1.6821875E-3,2.7591206E-2,9.0066E1,1.1E2,2.9517457E-2,-2.7313433E-3,4.8E0,1.156E0,3.92E0,1.01E2,-1.7072E2,4.258E2,4.64E0,9.81E1,1.083E2,2.8670281E-2,3.22E0,1.772E2,2.16E1,3.72E0,3.06E0,3.62E1,9.99E1,4.35E1,6.743E1,-2.384437E-2,-1.1E1,1.08E2,2.1272082E-2,3.12E0,5.02E-1,9.36E-1,-5.5185243E-5,2.9310573E-2,6.66E-1,1.3896005E-2,9.11E1,9.55E1,2.5631038E-2,-4.8872014E-4,-3.0013008E-2,5.708E1,4.7E1,3.272E2,-1.2029008E-2,2.4947615E-2,8.644E1,9.3E1,1.07668E2,4.17E1,8.74E1,2.9E1,5.931E1,2.704E1,1.43E1,7.402E0,4.48E1,1.1443744E-2,1.082E1,2.17E0,-5.4179262E-3,3.0095011E-2,9.64E0,3.7806E1,-2.3713E2,1.088E2,5.314E1,4.82E-1,5.04E0,4.836E1,1.095E2,-2.4017379E-2,7.242E0,9.57E1,9.662E1,7.404E0,3.738E1,4.499E1,-3.98E0,3.5E0,-4.6059788E-5,2.4222706E-2,1.4570037E-2,-2.0477759E-2,7.346E0,2.652E0,-1E-2,-1.25968745E-2,2.9714994E-2,2.303E1,-2.162545E-2,1.578443E-2,3.07E1,4.714E1,-2.8430149E-2,1.468E1,2.9484887E-2,1.117E2,-2.2353368E-2,3.2354778E-4,-1.5417176E-2,1.8544633E-2,-2.3042038E-2,9.6158E-3,-1.6361183E-3,-2.5726847E-2,-8.592939E-3,2.302456E-2,1.0312777E-3,2.1956865E-2,-2.1552281E-2,6.886671E-3,-1.2129343E-3,-2.1969901E-2,-7.971983E-3,2.6824178E-2,-2.8528618E-2,-1.1043854E-2,-2.3430008E-2,1.2188765E-3,-2.4709743E-2,4.814863E-3,2.1984676E-2,-1.4540115E-2,-2.3261344E-2,1.5098919E-2,-2.1125438E-2,-2.358073E-3,-2.302708E-2,9.08254E-3,-7.977351E-3,2.2561582E-2,2.5564669E-2,-1.0412817E-2,-2.2997942E-2,1.1535482E-2,-2.2268998E-2,1.2790824E-2,1.2090447E-4,2.13E-2,1.0378728E-2,-2.7623571E-2,-2.3623206E-2,1.1066228E-2,-1.9000506E-2,1.1680747E-2,5.1488574E-3,-2.103214E-2,-5.9556905E-3,2.3073394E-2,2.6656015E-2,-1.8490006E-3,1.4847861E-2,-4.33713E-3,8.240283E-3,-2.0027816E-2,-2.414908E-2,4.4349856E-3,7.2666844E-3,-1.4683101E-2,-1.5965275E-2,2.6536718E-2,-2.0250255E-2,5.485741E-3,2.4354154E-2,7.267746E-3,-1.7876511E-2,1.2972411E-2,-1.960543E-2,6.1025806E-3,2.45938E-3,-2.498331E-2,-1.7220384E-2,9.3054315E-3,2.7905699E-2,1.9431663E-3,-1.647512E-2,1.8235657E-2,8.764375E-4,-1.6892638E-2,2.075881E-2,-1.2607939E-3,-6.602056E-4,2.6419241E-2,2.5180351E-2,4.6990337E-3,-1.0798418E-2,2.1104626E-2,2.0250488E-2,-1.1679769E-2,1.4667602E-2,2.5533713E-2],"split_indices":[34,15,34,17,17,7,1,17,6,17,6,17,15,0,11,34,25,18,4,34,1,15,11,25,9,3,2,0,0,1,27,23,32,8,3,8,31,13,0,14,34,18,24,15,3,0,0,19,1,9,22,22,11,2,14,31,0,32,1,31,30,3,7,31,9,34,11,0,0,4,0,0,0,25,19,24,0,34,14,25,1,18,0,24,31,7,25,24,7,1,28,32,0,8,18,0,24,10,10,0,0,20,0,13,0,0,0,0,32,32,31,0,0,32,0,4,12,13,6,32,27,29,11,12,0,29,23,0,0,29,2,34,16,28,10,20,28,18,0,11,13,13,11,12,32,8,20,0,0,0,0,11,22,34,0,0,9,0,0,27,28,0,29,0,3,0,0,0,0,0,0,0,0,0,0,0,0,0,0,0,0,0,0,0,0,0,0,0,0,0,0,0,0,0,0,0,0,0,0,0,0,0,0,0,0,0,0,0,0,0,0,0,0,0,0,0,0,0,0,0,0,0,0,0,0,0,0,0,0,0,0,0,0,0,0,0,0,0,0,0,0,0,0,0,0,0,0,0,0,0,0,0,0,0,0,0,0,0,0],"split_type":[0,0,0,0,0,0,0,0,0,0,0,0,0,0,0,0,0,0,0,0,0,0,0,0,0,0,0,0,0,0,0,0,0,0,0,0,0,0,0,0,0,0,0,0,0,0,0,0,0,0,0,0,0,0,0,0,0,0,0,0,0,0,0,0,0,0,0,0,0,0,0,0,0,0,0,0,0,0,0,0,0,0,0,0,0,0,0,0,0,0,0,0,0,0,0,0,0,0,0,0,0,0,0,0,0,0,0,0,0,0,0,0,0,0,0,0,0,0,0,0,0,0,0,0,0,0,0,0,0,0,0,0,0,0,0,0,0,0,0,0,0,0,0,0,0,0,0,0,0,0,0,0,0,0,0,0,0,0,0,0,0,0,0,0,0,0,0,0,0,0,0,0,0,0,0,0,0,0,0,0,0,0,0,0,0,0,0,0,0,0,0,0,0,0,0,0,0,0,0,0,0,0,0,0,0,0,0,0,0,0,0,0,0,0,0,0,0,0,0,0,0,0,0,0,0,0,0,0,0,0,0,0,0,0,0,0,0,0,0,0,0,0,0,0,0,0,0,0,0,0,0,0,0,0,0,0,0,0,0],"sum_hessian":[4.2047715E3,2.9321726E3,1.2725988E3,1.7400233E3,1.1921493E3,1.2068284E3,6.5770424E1,4.1079153E2,1.3292318E3,3.9284598E2,7.993033E2,1.6497586E2,1.0418525E3,3.0086064E0,6.2761818E1,1.5548657E2,2.5530496E2,1.0692622E3,2.599696E2,9.142861E1,3.014174E2,5.642747E2,2.3502855E2,2.46814E1,1.4029446E2,3.5641315E2,6.854394E2,3.0098789E0,5.975194E1,1.4215004E2,1.3336528E1,1.7546988E2,7.983508E1,4.5113126E2,6.181309E2,2.3148477E2,2.8484823E1,8.133054E1,1.00980625E1,1.5237758E2,1.4903981E2,3.3381128E2,2.3046346E2,1.110673E2,1.2396126E2,2.1180725E1,3.5006766E0,1.08081375E2,3.221308E1,2.2953644E2,1.2687672E2,5.704134E1,6.283981E2,2.3354305E1,1.1879574E2,9.827331E0,3.5091975E0,1.8307161E1,1.5716272E2,1.43680105E1,6.546707E1,4.3222562E2,1.890562E1,5.955633E2,2.256762E1,1.7789896E2,5.358582E1,4.2714763E0,2.4213346E1,4.199786E1,3.9332687E1,1.4911563E2,3.2619452E0,9.988103E1,4.9158783E1,1.0398146E2,2.298298E2,1.5093474E2,7.952872E1,6.60105E1,4.5056805E1,6.9737045E1,5.4224213E1,8.670276E1,2.137862E1,2.2430569E1,9.782513E0,1.4190437E2,8.763207E1,1.17593155E2,9.283558E0,5.153975E1,5.501591E0,1.7317305E1,6.1108075E2,8.070267E0,1.5284038E1,8.78356E0,1.1001218E2,3.0146282E0,6.812702E0,1.2514475E1,5.792686E0,1.0156544E2,5.5597275E1,1.13539505E1,3.01406E0,1.8244465E1,4.7222607E1,3.0318985E2,1.2903578E2,3.7584116E0,1.5147209E1,5.427425E2,5.282085E1,1.3512682E1,9.054938E0,3.1443577E1,1.4645538E2,2.4112097E1,2.9473722E1,2.7200611E1,1.479725E1,3.3540684E1,5.7920012E0,8.533602E1,1.4545E1,4.2676387E0,4.4891148E1,6.011317E1,4.386829E1,1.9968898E2,3.014083E1,3.8839195E1,1.1209554E2,4.9477753E1,3.0050962E1,4.999937E1,1.6011127E1,3.2520134E1,1.2536669E1,5.0141647E1,1.95954E1,3.639815E1,5.0304607E1,1.0291162E1,1.108746E1,4.0205874E0,1.840998E1,3.277172E0,6.5053406E0,3.75135E1,1.0439087E2,8.086218E1,6.7698846E0,8.185551E1,3.5737648E1,5.504474E0,3.779084E0,2.7938517E1,2.3601233E1,5.2417827E0,1.2075522E1,3.267345E2,2.8434625E2,9.254312E0,6.0297265E0,4.751234E0,4.0323257E0,1.0699207E2,3.0201023E0,3.263831E0,9.250644E0,4.264463E0,9.730098E1,3.7947887E1,1.7649385E1,1.351711E1,3.3705498E1,2.9887846E1,2.73302E2,1.237305E2,5.3052773E0,5.267072E2,1.6035263E1,3.674809E1,1.6072762E1,1.0495296E1,3.0173862E0,5.5509887E0,3.5039494E0,5.253547E0,2.6190031E1,1.1683389E2,2.9621489E1,8.007087E0,1.610501E1,4.7648096E0,2.4708912E1,2.1687695E1,5.512916E0,8.252562E0,6.544688E0,3.0516191E1,3.0244937E0,2.4617676E1,6.071835E1,6.292766E0,8.2522335E0,8.506567E0,5.16066E1,3.7319477E1,6.548815E0,1.2319416E1,1.8736957E2,2.257361E1,7.567218E0,3.5575504E1,3.263689E0,4.482328E1,6.727226E1,3.4461937E1,1.5015815E1,2.4769285E1,5.2816787E0,3.396424E1,1.603513E1,3.7552834E0,2.876485E1,7.508044E0,5.0286245E0,3.756727E1,1.2574379E1,8.26385E0,1.133155E1,1.2012496E1,2.4385654E1,8.038811E0,4.2265793E1,5.0070477E0,5.284114E0,7.819907E0,3.2675521E0,5.7612195E0,3.175228E1,5.955263E1,4.4838238E1,6.5789085E1,1.5073103E1,1.7830072E1,1.7907574E1,1.5374005E1,1.2564511E1,1.7803276E1,5.7979565E0,7.81417E0,4.261353E0,1.1505343E2,1.6929282E2],"tree_param":{"num_deleted":"0","num_feature":"35","num_nodes":"259","size_leaf_vector":"0"}},{"base_weights":[-8.869197E-3,-3.4268302E-1,7.5628525E-1,-7.6244473E-1,3.4681055E-1,8.941498E-1,-2.9944882E-2,1.583138E-2,-1.0016723E0,9.9573284E-1,1.9895304E-2,1.1054201E0,2.2632538E-1,-8.232067E-1,5.447977E-1,-1.1466904E0,-2.9865615E-3,6.935259E-2,1.267905E0,-4.2593795E-1,4.7952095E-1,1.2989684E0,6.240735E-1,5.917455E-1,-5.260616E-1,-9.209645E-1,2.6610997E-2,7.342886E-1,-5.904596E-1,-7.735603E-1,-1.4264688E0,-3.1360483E-1,1.1686826E0,7.6984847E-1,-5.6926167E-1,2.8194178E-2,8.74579E-1,5.3654365E-2,-8.0232084E-1,6.3424215E-2,1.1263931E0,-3.265517E-1,1.3817016E0,7.490022E-1,-6.9448197E-1,-5.0662047E-1,8.300565E-1,-6.5570953E-3,-1.1826742E0,-1.0923105E0,5.329222E-1,-8.66713E-1,8.7869316E-1,2.3465473E-2,-8.5655135E-1,-1.0949726E0,-2.6382288E-1,-1.4762857E0,-1.7926276E-1,6.411607E-1,-5.7025456E-1,-9.310007E-4,1.3927331E0,8.300162E-2,1.315752E0,2.0414755E-2,-9.057512E-1,5.6212443E-1,1.4780649E0,-6.903775E-1,2.8014585E-1,4.4310543E-1,-9.695715E-1,8.088582E-1,-2.3938796E-1,1.3900594E0,4.4354323E-1,-2.7206587E-2,2.840818E-1,1.1709327E0,1.6712492E0,-9.290721E-1,8.633899E-1,-1.110272E0,9.797558E-3,-1.0053977E0,1.3411124E-1,1.3812317E0,2.4190618E-1,-8.211864E-1,5.168544E-1,-1.5069133E0,-2.8697672E-1,-1.4108251E0,-6.9280446E-1,-1.865976E-2,1.0051302E0,-2.4451332E-2,1.22972615E-2,2.599008E-1,1.1141796E0,-1.1367124E0,1.946223E-2,-1.2146118E0,-1.8825312E-1,-1.1278051E0,-3.4247413E-2,-1.5368925E0,-8.8553065E-1,-1.0183713E0,5.4538006E-1,-4.466859E-2,2.5173012E-2,-8.479201E-1,5.48564E-1,4.0690526E-3,2.7830089E-2,6.705937E-1,-2.0660307E-2,2.5345546E-1,2.9415324E-2,1.8551197E-2,-1.1186436E0,-2.6283132E-2,7.05553E-1,-1.3418319E-2,2.8953781E-2,5.461254E-1,-1.0288264E0,1.2068355E0,-5.4039747E-2,1.1667796E0,-3.1692168E-1,-1.1595745E0,-3.079836E-1,1.1303502E0,-5.8353955E-1,-4.6238565E-1,8.998773E-1,-2.678789E-2,1.535726E0,-9.578777E-2,1.267969E0,-1.577964E-1,2.5465943E-2,6.6447836E-1,1.3962905E0,1.7086375E0,7.70087E-2,-2.6226055E-2,1.2677875E-2,1.6122586E-1,1.0615798E0,-2.439505E-2,3.9193933E-3,-4.8449767E-1,-2.8103316E-2,6.6880953E-1,-1.2085584E-2,1.4705944E0,-1.1102437E-2,8.986908E-1,-2.827999E-1,-1.0448776E-1,-2.5447171E-2,-1.5123612E-2,8.4466904E-1,-5.1867105E-3,-2.8687986E-2,-1.8028636E-2,1.9821418E-2,2.2945346E-3,-2.6080417E-2,-1.598443E-2,1.8601248E-2,-5.0578504E-3,2.633581E-2,8.997243E-3,-2.0214088E-2,2.0813111E-2,-1.1364466E-2,-1.0815879E-3,-2.4249986E-2,1.3038008E-2,-2.2026753E-2,5.82913E-3,-2.4690408E-2,9.591186E-3,-2.2830322E-2,1.4348179E-2,-8.812718E-3,1.0577712E-3,-2.7215306E-2,-2.3293318E-2,-9.891703E-4,-2.4953699E-2,4.7765593E-3,2.0773457E-2,-8.1702685E-3,2.2254521E-2,-8.290156E-3,-4.1607087E-3,-2.3437547E-2,-6.55943E-3,2.2171827E-2,2.384736E-2,-6.675683E-3,2.4897262E-2,-1.7234245E-2,-2.253517E-2,8.949933E-3,1.9191995E-2,-3.211798E-4,2.1390647E-2,-5.5758627E-3,-2.5185252E-2,-2.218901E-3,2.4095159E-2,-3.5899158E-3,1.44487275E-2,-6.3916156E-3,-1.468539E-3,2.918036E-2,-1.9878404E-2,1.0005121E-2,-2.1248778E-2,1.5686993E-2,-1.0534264E-2,2.1101186E-2,2.5483223E-2,3.8240266E-3,-2.0451851E-2,1.7136144E-2,1.0818047E-3,-1.7459875E-2,3.5515465E-3,2.7423637E-2,1.2230931E-2,-2.2144992E-2,1.1245555E-3,2.7963586E-2,-1.0584374E-2,2.029274E-2,2.8359588E-2,-2.460175E-4,-1.2027241E-2,2.6030924E-2,6.390792E-3,2.5666382E-2,2.8455867E-2,1.8937144E-2,1.0465529E-2,3.0506767E-2,-1.4128343E-2,1.6420782E-2,-3.9282055E-3,2.3988683E-2,2.1112941E-2,-3.5993762E-3,-1.6645594E-2,1.0713965E-2,2.1601913E-2,-4.8714173E-3,-8.5128023E-4,2.752737E-2,-3.1315258E-3,2.110286E-2,-1.1697034E-2,1.3455332E-2,-1.2784846E-2,1.4343302E-2,2.809191E-3,2.1902263E-2],"categories":[],"categories_nodes":[],"categories_segments":[],"categories_sizes":[],"default_left":[0,0,0,0,0,0,0,0,0,0,0,0,0,0,0,0,0,0,0,0,0,0,0,0,0,0,0,0,0,0,0,0,0,0,0,0,0,0,0,0,0,0,0,0,0,0,0,0,0,0,0,0,0,0,0,0,0,0,0,0,0,0,0,0,0,0,0,0,0,0,0,0,0,0,0,0,0,0,0,0,0,0,0,0,0,0,0,0,0,0,0,0,0,0,0,0,0,0,0,0,0,0,0,0,0,0,0,0,0,0,0,0,0,0,0,0,0,0,0,0,0,0,0,0,0,0,0,0,0,0,0,0,0,0,0,0,0,0,0,0,0,0,0,0,0,0,0,0,0,0,0,0,0,0,0,0,0,0,0,0,0,0,0,0,0,0,0,0,0,0,0,0,0,0,0,0,0,0,0,0,0,0,0,0,0,0,0,0,0,0,0,0,0,0,0,0,0,0,0,0,0,0,0,0,0,0,0,0,0,0,0,0,0,0,0,0,0,0,0,0,0,0,0,0,0,0,0,0,0,0,0,0,0,0,0,0,0,0,0,0,0,0,0,0,0,0,0,0,0,0,0,0,0,0,0,0,0,0,0,0,0,0,0,0,0,0,0,0,0,0,0,0,0],"id":5,"left_children":[1,3,5,7,9,11,-1,13,15,17,19,21,23,25,27,29,31,33,35,37,39,41,43,45,47,49,-1,51,53,55,57,59,61,63,65,-1,67,69,71,73,75,77,79,81,83,85,87,89,91,93,95,97,99,-1,101,103,105,107,109,111,113,-1,115,117,119,-1,121,123,125,127,129,131,133,135,137,139,141,-1,143,145,147,149,151,153,-1,155,157,159,161,163,165,167,169,171,173,-1,175,-1,-1,177,179,181,-1,183,185,187,189,191,193,195,197,199,-1,201,203,-1,-1,205,-1,207,-1,-1,209,-1,211,-1,-1,213,215,217,219,221,223,225,227,229,231,233,235,237,239,241,243,245,-1,247,249,251,253,-1,-1,255,257,-1,-1,259,-1,261,-1,263,-1,265,267,269,-1,-1,271,-1,-1,-1,-1,-1,-1,-1,-1,-1,-1,-1,-1,-1,-1,-1,-1,-1,-1,-1,-1,-1,-1,-1,-1,-1,-1,-1,-1,-1,-1,-1,-1,-1,-1,-1,-1,-1,-1,-1,-1,-1,-1,-1,-1,-1,-1,-1,-1,-1,-1,-1,-1,-1,-1,-1,-1,-1,-1,-1,-1,-1,-1,-1,-1,-1,-1,-1,-1,-1,-1,-1,-1,-1,-1,-1,-1,-1,-1,-1,-1,-1,-1,-1,-1,-1,-1,-1,-1,-1,-1,-1,-1,-1,-1,-1,-1,-1,-1,-1,-1,-1,-1,-1,-1,-1,-1],"loss_changes":[1.0764432E3,8.495075E2,4.3685303E2,3.3965454E2,2.3568414E2,1.7089893E2,0E0,1.9123726E2,2.0207751E2,9.375595E1,1.518151E2,8.5016846E1,8.080825E1,3.956508E1,5.7280876E1,1.2608972E2,6.5120895E1,3.8721226E1,3.7330475E1,6.7932625E1,9.811025E1,8.8690186E1,4.435762E1,5.2127274E1,3.2821823E1,4.058246E1,0E0,5.321998E1,2.0851965E1,8.560727E1,4.2924194E1,3.5021374E1,1.0338985E1,1.5352592E1,2.7530834E1,0E0,2.4823166E1,2.821983E1,4.4335938E1,5.0539795E1,2.5080872E1,2.4864033E1,3.615747E1,4.755629E1,1.2901616E1,1.1588575E1,5.2409203E1,2.376339E1,1.1912106E1,1.7342209E1,1.4358172E1,1.7006645E1,3.01111E1,0E0,2.0186495E1,3.4617035E1,4.043676E1,2.256604E1,1.7481594E1,1.669158E1,3.5257217E1,0E0,6.8749313E0,1.5135849E1,8.440403E0,0E0,1.7310408E1,2.8064556E1,1.9323486E1,1.6925377E1,3.9770485E1,1.4473094E1,2.3041855E1,2.960397E1,4.0907482E1,2.1195969E1,1.8452877E1,0E0,1.1920869E1,4.0705963E1,1.5411316E1,1.6155413E1,3.1633942E1,7.1181297E0,0E0,5.554842E0,7.765643E0,1.6020813E1,2.779698E1,9.725593E0,1.6090202E1,4.4504776E0,1.4375494E1,9.8085785E0,2.6408625E1,0E0,9.54153E0,0E0,0E0,2.1722076E1,2.060492E1,8.066326E0,0E0,2.508957E1,2.5070066E1,1.335112E1,6.5394485E1,1.7033447E1,2.3729198E1,7.3490067E0,1.0667911E1,1.0376725E1,0E0,2.6671494E1,1.5633566E1,0E0,0E0,1.0577858E1,0E0,1.1565596E1,0E0,0E0,1.0339672E1,0E0,2.4338814E1,0E0,0E0,5.6789823E0,1.1290306E1,8.419041E0,2.6333096E1,8.485172E0,1.0314186E1,1.7120102E1,1.9787476E1,1.5359161E1,1.2822811E1,3.7615757E1,1.1959728E1,1.0347635E1,8.302261E0,1.7205023E1,7.408369E0,1.608707E1,0E0,2.688417E1,1.636789E1,8.519653E0,6.1008363E0,0E0,0E0,2.4308195E1,3.2807938E1,0E0,0E0,6.859456E0,0E0,5.9931216E0,0E0,1.2512436E1,0E0,1.2021849E1,1.881771E1,7.1262655E0,0E0,0E0,7.564398E0,0E0,0E0,0E0,0E0,0E0,0E0,0E0,0E0,0E0,0E0,0E0,0E0,0E0,0E0,0E0,0E0,0E0,0E0,0E0,0E0,0E0,0E0,0E0,0E0,0E0,0E0,0E0,0E0,0E0,0E0,0E0,0E0,0E0,0E0,0E0,0E0,0E0,0E0,0E0,0E0,0E0,0E0,0E0,0E0,0E0,0E0,0E0,0E0,0E0,0E0,0E0,0E0,0E0,0E0,0E0,0E0,0E0,0E0,0E0,0E0,0E0,0E0,0E0,0E0,0E0,0E0,0E0,0E0,0E0,0E0,0E0,0E0,0E0,0E0,0E0,0E0,0E0,0E0,0E0,0E0,0E0,0E0,0E0,0E0,0E0,0E0,0E0,0E0,0E0,0E0,0E0,0E0,0E0,0E0,0E0,0E0,0E0,0E0,0E0,0E0,0E0,0E0,0E0,0E0,0E0,0E0],"parents":[2147483647,0,0,1,1,2,2,3,3,4,4,5,5,7,7,8,8,9,9,10,10,11,11,12,12,13,13,14,14,15,15,16,16,17,17,18,18,19,19,20,20,21,21,22,22,23,23,24,24,25,25,27,27,28,28,29,29,30,30,31,31,32,32,33,33,34,34,36,36,37,37,38,38,39,39,40,40,41,41,42,42,43,43,44,44,45,45,46,46,47,47,48,48,49,49,50,50,51,51,52,52,54,54,55,55,56,56,57,57,58,58,59,59,60,60,62,62,63,63,64,64,66,66,67,67,68,68,69,69,70,70,71,71,72,72,73,73,74,74,75,75,76,76,78,78,79,79,80,80,81,81,82,82,83,83,85,85,86,86,87,87,88,88,89,89,90,90,91,91,92,92,93,93,94,94,96,96,99,99,100,100,101,101,103,103,104,104,105,105,106,106,107,107,108,108,109,109,110,110,111,111,113,113,114,114,117,117,119,119,122,122,124,124,127,127,128,128,129,129,130,130,131,131,132,132,133,133,134,134,135,135,136,136,137,137,138,138,139,139,140,140,141,141,142,142,143,143,145,145,146,146,147,147,148,148,151,151,152,152,155,155,157,157,159,159,161,161,162,162,163,163,166,166],"right_children":[2,4,6,8,10,12,-1,14,16,18,20,22,24,26,28,30,32,34,36,38,40,42,44,46,48,50,-1,52,54,56,58,60,62,64,66,-1,68,70,72,74,76,78,80,82,84,86,88,90,92,94,96,98,100,-1,102,104,106,108,110,112,114,-1,116,118,120,-1,122,124,126,128,130,132,134,136,138,140,142,-1,144,146,148,150,152,154,-1,156,158,160,162,164,166,168,170,172,174,-1,176,-1,-1,178,180,182,-1,184,186,188,190,192,194,196,198,200,-1,202,204,-1,-1,206,-1,208,-1,-1,210,-1,212,-1,-1,214,216,218,220,222,224,226,228,230,232,234,236,238,240,242,244,246,-1,248,250,252,254,-1,-1,256,258,-1,-1,260,-1,262,-1,264,-1,266,268,270,-1,-1,272,-1,-1,-1,-1,-1,-1,-1,-1,-1,-1,-1,-1,-1,-1,-1,-1,-1,-1,-1,-1,-1,-1,-1,-1,-1,-1,-1,-1,-1,-1,-1,-1,-1,-1,-1,-1,-1,-1,-1,-1,-1,-1,-1,-1,-1,-1,-1,-1,-1,-1,-1,-1,-1,-1,-1,-1,-1,-1,-1,-1,-1,-1,-1,-1,-1,-1,-1,-1,-1,-1,-1,-1,-1,-1,-1,-1,-1,-1,-1,-1,-1,-1,-1,-1,-1,-1,-1,-1,-1,-1,-1,-1,-1,-1,-1,-1,-1,-1,-1,-1,-1,-1,-1,-1,-1,-1],"split_conditions":[-4E-1,2.26E1,4.4E-1,7.2E0,7.268E0,1.104E2,-2.9944882E-2,3.248E0,2.5E1,3.158E0,1.82E1,9.98E1,9.93E1,8.605E1,4.54E0,1.085E2,8.767E1,9.76E1,9.71E1,1.071E2,7.392E0,7.262E0,3.5E1,2.7E1,1.125E2,1.09E2,2.6610997E-2,1.84E0,4.21E1,1.185E2,1.46E2,-1.4266E2,-2.9E0,1.95E1,9.549E1,2.8194178E-2,-1.05E1,2.74E1,5.368E1,-1.6408E2,2.27E0,1.92E1,1.265E2,2.85E1,3.892E1,2.04E1,3.28E1,7.55E1,9.5E1,2.088E0,7.65E1,7.42E1,1.54E1,2.3465473E-2,4.85E1,1.05E2,2.74E1,2.24E2,6.34E1,2.508E2,7.412E0,-9.310007E-4,2.79E1,1.28E1,1.082E1,2.0414755E-2,1.88E0,9.6E1,1.156E0,-3E0,3.16E1,-7.881E1,1.28E2,4.98E0,1.37E2,3.42E1,1.7E0,-2.7206587E-2,8.1E0,1.74E1,3.852E1,2.405E1,1.046E2,1.34E2,9.797558E-3,4.312E0,2.17E0,3.796E1,6.082E1,5.74E0,1.15E2,1.4E0,2.067E1,9.23E1,-9.42E0,-1.865976E-2,1.067E2,-2.4451332E-2,1.22972615E-2,6.64E0,4.34E0,9.65E1,1.946223E-2,6E1,8.44E0,1.012E2,3.16E1,-2.9918E2,9.1E1,2.06E1,2.14E0,7.14E-1,2.5173012E-2,3.73E1,2.428E1,4.0690526E-3,2.7830089E-2,2.882E1,-2.0660307E-2,-7.087E1,2.9415324E-2,1.8551197E-2,4.46E0,-2.6283132E-2,2.23E0,-1.3418319E-2,2.8953781E-2,9.71E1,3.68E1,3.378E1,3.166E0,3.71E1,1.256E1,8.9E-1,5.36E0,7.313E1,9.549E1,1.089E2,3.38E1,4.3E0,2.24E1,4.714E1,3.62E0,8.08E0,2.5465943E-2,2.3E1,1.075E2,1.71E0,8.24E0,-2.6226055E-2,1.2677875E-2,2.24E1,1.6018E3,-2.439505E-2,3.9193933E-3,4.286E1,-2.8103316E-2,7.237E1,-1.2085584E-2,7.68E0,-1.1102437E-2,1.44E1,2.37E1,-1.4E0,-2.5447171E-2,-1.5123612E-2,8.4E1,-5.1867105E-3,-2.8687986E-2,-1.8028636E-2,1.9821418E-2,2.2945346E-3,-2.6080417E-2,-1.598443E-2,1.8601248E-2,-5.0578504E-3,2.633581E-2,8.997243E-3,-2.0214088E-2,2.0813111E-2,-1.1364466E-2,-1.0815879E-3,-2.4249986E-2,1.3038008E-2,-2.2026753E-2,5.82913E-3,-2.4690408E-2,9.591186E-3,-2.2830322E-2,1.4348179E-2,-8.812718E-3,1.0577712E-3,-2.7215306E-2,-2.3293318E-2,-9.891703E-4,-2.4953699E-2,4.7765593E-3,2.0773457E-2,-8.1702685E-3,2.2254521E-2,-8.290156E-3,-4.1607087E-3,-2.3437547E-2,-6.55943E-3,2.2171827E-2,2.384736E-2,-6.675683E-3,2.4897262E-2,-1.7234245E-2,-2.253517E-2,8.949933E-3,1.9191995E-2,-3.211798E-4,2.1390647E-2,-5.5758627E-3,-2.5185252E-2,-2.218901E-3,2.4095159E-2,-3.5899158E-3,1.44487275E-2,-6.3916156E-3,-1.468539E-3,2.918036E-2,-1.9878404E-2,1.0005121E-2,-2.1248778E-2,1.5686993E-2,-1.0534264E-2,2.1101186E-2,2.5483223E-2,3.8240266E-3,-2.0451851E-2,1.7136144E-2,1.0818047E-3,-1.7459875E-2,3.5515465E-3,2.7423637E-2,1.2230931E-2,-2.2144992E-2,1.1245555E-3,2.7963586E-2,-1.0584374E-2,2.029274E-2,2.8359588E-2,-2.460175E-4,-1.2027241E-2,2.6030924E-2,6.390792E-3,2.5666382E-2,2.8455867E-2,1.8937144E-2,1.0465529E-2,3.0506767E-2,-1.4128343E-2,1.6420782E-2,-3.9282055E-3,2.3988683E-2,2.1112941E-2,-3.5993762E-3,-1.6645594E-2,1.0713965E-2,2.1601913E-2,-4.8714173E-3,-8.5128023E-4,2.752737E-2,-3.1315258E-3,2.110286E-2,-1.1697034E-2,1.3455332E-2,-1.2784846E-2,1.4343302E-2,2.809191E-3,2.1902263E-2],"split_indices":[34,15,34,17,17,18,0,17,6,17,6,1,1,32,25,18,4,1,1,18,11,11,27,7,18,0,0,23,32,3,3,34,8,6,13,0,34,7,32,34,23,9,3,28,28,15,7,4,16,17,4,32,15,0,12,0,7,31,16,30,11,0,7,29,29,0,23,31,19,8,7,34,3,22,3,12,19,0,17,15,27,9,3,3,0,25,23,27,32,26,31,22,9,13,34,0,18,0,0,17,20,1,0,0,17,18,7,34,0,6,23,19,0,2,9,0,0,27,0,34,0,0,24,0,23,0,0,1,15,27,26,12,29,10,20,32,13,18,15,24,7,28,22,26,0,6,18,23,17,0,0,6,14,0,0,12,0,32,0,29,0,15,15,8,0,0,4,0,0,0,0,0,0,0,0,0,0,0,0,0,0,0,0,0,0,0,0,0,0,0,0,0,0,0,0,0,0,0,0,0,0,0,0,0,0,0,0,0,0,0,0,0,0,0,0,0,0,0,0,0,0,0,0,0,0,0,0,0,0,0,0,0,0,0,0,0,0,0,0,0,0,0,0,0,0,0,0,0,0,0,0,0,0,0,0,0,0,0,0,0,0,0,0,0,0,0,0,0,0,0,0,0,0],"split_type":[0,0,0,0,0,0,0,0,0,0,0,0,0,0,0,0,0,0,0,0,0,0,0,0,0,0,0,0,0,0,0,0,0,0,0,0,0,0,0,0,0,0,0,0,0,0,0,0,0,0,0,0,0,0,0,0,0,0,0,0,0,0,0,0,0,0,0,0,0,0,0,0,0,0,0,0,0,0,0,0,0,0,0,0,0,0,0,0,0,0,0,0,0,0,0,0,0,0,0,0,0,0,0,0,0,0,0,0,0,0,0,0,0,0,0,0,0,0,0,0,0,0,0,0,0,0,0,0,0,0,0,0,0,0,0,0,0,0,0,0,0,0,0,0,0,0,0,0,0,0,0,0,0,0,0,0,0,0,0,0,0,0,0,0,0,0,0,0,0,0,0,0,0,0,0,0,0,0,0,0,0,0,0,0,0,0,0,0,0,0,0,0,0,0,0,0,0,0,0,0,0,0,0,0,0,0,0,0,0,0,0,0,0,0,0,0,0,0,0,0,0,0,0,0,0,0,0,0,0,0,0,0,0,0,0,0,0,0,0,0,0,0,0,0,0,0,0,0,0,0,0,0,0,0,0,0,0,0,0,0,0,0,0,0,0,0,0,0,0,0,0,0,0],"sum_hessian":[4.2124043E3,2.9332625E3,1.2791417E3,1.8231985E3,1.1100638E3,1.212036E3,6.71058E1,4.288759E2,1.3943226E3,3.71197E2,7.388668E2,9.2025305E2,2.9178293E2,1.6561836E2,2.632575E2,1.2173975E3,1.7692513E2,8.457788E1,2.866191E2,3.7509802E2,3.6376883E2,6.551287E2,2.6512433E2,1.9654045E2,9.524247E1,1.5956796E2,6.050414E0,2.2590405E2,3.735345E1,5.232815E2,6.9411597E2,1.4042874E2,3.649637E1,4.0236725E1,4.4341156E1,1.5156822E2,1.350509E2,1.6531227E2,2.0978575E2,2.2204057E2,1.4172826E2,3.1586086E1,6.235426E2,2.4257329E2,2.2551052E1,3.4839718E1,1.6170074E2,5.3736637E1,4.1505836E1,1.4296739E2,1.660056E1,1.8276133E1,2.0762793E2,4.0355344E0,3.3317917E1,3.2022018E2,2.0306133E2,6.6727936E2,2.6836662E1,2.9433748E1,1.10995E2,5.7734704E0,3.07229E1,1.8328348E1,2.1908379E1,6.801374E0,3.7539783E1,9.025359E1,4.4797306E1,3.8101025E1,1.2721124E2,2.464183E1,1.8514392E2,6.365923E1,1.5838133E2,1.0150056E2,4.0227707E1,9.980465E0,2.1605621E1,3.6378116E2,2.5976147E2,1.502554E1,2.2754774E2,1.7022058E1,5.528993E0,1.926992E1,1.5569797E1,8.277815E1,7.8922585E1,2.079802E1,3.2938618E1,2.9973242E1,1.1532594E1,7.813847E1,6.4828926E1,3.4986482E0,1.3101911E1,1.3744747E1,4.5313854E0,5.7813625E1,1.498143E2,2.9536005E1,3.7819128E0,2.825932E2,3.7626972E1,4.1808193E1,1.6125314E2,6.0373895E2,6.3540405E1,1.2248281E1,1.4588382E1,1.6323982E1,1.3109767E1,8.9119644E1,2.1875357E1,4.771664E0,2.5951235E1,1.2829051E1,5.499296E0,6.028011E0,1.5880367E1,3.2803297E0,3.4259453E1,5.250815E0,8.500278E1,3.007411E0,4.1789894E1,8.055849E0,3.0045176E1,3.3024292E1,9.418695E1,1.2348649E1,1.2293181E1,1.4325069E2,4.1893234E1,5.1870907E1,1.1788324E1,1.3295175E2,2.5429594E1,9.538551E0,9.1962006E1,2.4852962E1,1.5374743E1,1.631233E1,5.2932897E0,1.1324055E2,2.5054062E2,2.53739E2,6.022466E0,1.124878E1,3.7767606E0,5.0488003E1,1.7705974E2,1.4005906E1,3.016152E0,1.1280411E1,7.9895096E0,9.558743E0,6.0110545E0,7.952237E1,3.255787E0,3.4733387E1,4.4189194E1,1.02941885E1,1.0503831E1,6.0064154E0,2.6932203E1,3.2580178E0,2.6715223E1,7.7504406E0,3.7821534E0,3.7662213E0,7.4372246E1,5.802998E1,6.798948E0,3.7638571E0,9.338054E0,4.9552425E1,8.2612E0,1.440473E2,5.767003E0,5.7775726E0,2.3758432E1,5.783319E0,2.768099E2,2.6886805E1,1.0740166E1,3.7767704E0,3.8031425E1,5.691723E1,1.0433591E2,6.5298467E0,5.972091E2,4.0956707E1,2.2583694E1,9.234456E0,3.0138237E0,8.825252E0,5.76313E0,3.5297627E0,1.2794219E1,4.038346E1,4.873618E1,9.777688E0,1.2097669E1,7.5627003E0,5.266351E0,3.0241594E0,3.0038514E0,3.1240412E1,3.0190394E0,5.4876842E1,3.0125938E1,4.2902384E0,3.765611E0,2.0253246E1,9.791929E0,